tree
version=v4
num_class=1
num_tree_per_iteration=1
label_index=0
max_feature_idx=27
objective=regression
feature_names=open high low close volume ret_1 ret_3 ret_5 ret_10 ret_20 sma_s sma_m sma_l ema_s ema_m ema_l sma_spread_sm sma_spread_ml ema_spread_sm ema_spread_ml atr14 vol_sd bb_z rsi sin_dow cos_dow sin_dom cos_dom
feature_infos=[-2.8056471043100668:2.3876447046959641] [-2.7315351623131954:2.3229619141538356] [-2.7658369063259487:2.2317662258980895] [-2.8154419692270336:2.4086353768225628] [-1.5096305260845833:4.3761915309866444] [-5.6441868341429347:3.0646419699418734] [-4.8491552141819367:2.6382151298415217] [-4.1725291819772101:2.5714130582114518] [-4.867699275034906:2.6802232277701497] [-4.3168594839852323:1.7542962023854225] [-2.6128702847739409:2.6511432635238843] [-2.428587186969672:3.6185273644227243] [-1.6688376751474221:3.2934944395774322] [-2.6730683917798537:2.5630083202805429] [-2.4349706664755253:3.5336444104377547] [-1.7399160662322508:3.4765455674205969] [-4.9500169046927551:1.7842263941485237] [-3.2187316611979733:1.7326442700849245] [-4.8650086173067573:2.0002177131561183] [-2.7979503073891174:1.7353772977149573] [-1.7708194046256276:3.7184473055325382] [-1.6163390333629164:3.1179513091196793] [-2.9463564727766216:2.4598551835366345] [-2.6482123355709857:2.2276514056562466] [-2.5704582776274596:1.1199488617823194] [-1.2650623085636434:1.2422403075586537] [-1.0706065766329818:2.4819014454284654] [-1.3462905052155527:1.6345466577365035]
tree_sizes=1068 1154 1154 1153 1249 1246 1156 1248 1152 1245 1156 1247 1153 1242 1165 1157 1152 1061 1244 1155 1061 1159 1148 1159 1246 1157 1159 1155 1156 1158 1156 1150 1151 1343 1254 1249 1147 1161 1060 1152 1245 1253 1073 1154 1150 1241 1155 1155 1245 1149 1247 1154 1154 1059 1150 1148 1154 1064 1156 1156 1067 1156 1062 1152 1247 1153 1239 1152 1243 1065 1066 1157 1160 1245 1242 1241 1064 1151 1243 1244 1243 1242 1238 1164 1243 1155 972 1242 1158 1165 1155 1056 1060 1158 1149 1342 1154 1251 1160 1156 1248 1243 1345 1154 1153 1154 1162 1066 1061 1159 1162 1159 1246 1253 1150 1153 1063 1246 1146 1149 1246 1150 1149 1158 1247 1164 1154 1150 1159 1255 1339 1243 1153 1158 1157 1248 1152 1066 1155 1249 1164 1246 1059 1155 1247 1339 1156 1153 1252 1066 1155 1245 1244 1061 1064 1250 1248 1155 1344 1157 1154 1069 1248 1153 1072 1151 1243 1159 1252 1244 1151 1161 1151 1056 1246 1247 1063 1157 1061 1153 1157 1155 1249 1159 1255 1156 1155 1159 1247 1249 1061 1162 1340 1164 1247 1152 1250 1152 1238 1161 1254 1066 1069 1247 1243 1152 1069 967 1251 1069 1244 1152 1156 1155 1064 1249 1062 1159 1253 1073 1060 1152 1061 1341 1154 1167 1255 1246 1060 1158 1245 1060 1159 1157 1146 1062 1057 1244 1061 1154 1157 1157 1157 1240 1153 1245 1155 1169 1155 1160 1254 1149 1251 1158 1246 1235 1157 1063 1160 1152 1156 1244 1150 1246 1248 1240 1160 1150 1156 1157 1253 1154 1246 1147 1247 1152 1066 1248 1253 1149 1159 1155 1158 1152 1251 1243 1158 1245 1246 1152 1146 1147 1249 1061 1056 1149 1248 1063 1161 1152 1060 1149 1154 1250 1066 1154 1256 1243 1160 1157 1246 1244 1155 1249 974 1153 1248 1162 1151 1155 1156 1057 1151 1155 1240 1246 1251 1158 1065 1064 1156 1246 1338 1241 1071 1157 1153 1249 1253 1065 1157 1153 1156 1243 1154 1155 1156 1244 1157 1162 1152 1157 1151 1155 1151 1158 1245 1161 1153 1249 1068 1156 1153 1249 1244 1343 1055 1157 1147 1256 1152 1151 1243 1241 1244 1154 1153 1156 1247 1160 1062 1153 1247 1066 1154 1251 1247 1152 1152 1154 1065 1149 1156 1068 1061 1249 1067 1162 1248 1154 1156 1249 1070 1246 1240 1246 1247 1248 1251 1155 1154 1243 1155 1155 1161 1154 1156 1251 1254 1250 1157 1164 1158 1245 1155 1145 1248 1258 1247 1237 1150 1256 1155 1245 968 1252 1151 1254 1150 1156 1251 1163 1243 1151 1159 1157 1259 1160 1338 1152 1062 1152 1151 1153 1247 1149 1067 1243 1162 1156 1160 1155 1252 1252 1151 1245 1066 1155 1154 1247 1240 1331 1153 1156 1249 1162 1246 1152 1253 1166 1337 1158 1162 1166 1154 1248 1154 1072 1249 1157 1159 1155 1058 1249 1244 1242 1250 1157 1150 1253 1155 1154 1150 1250 1070 1151 1153 1162 1246 1151 1152 1062 1065 1246 1157 1155 1254 1156 1157 1159 1165 1247 1160 1153 1160 1248 1166 1063 1153 1248 1240 1247 1245 1243 1245 1250 1252 1070 1161 1154 1070 1053 1067 1145 1150 1246 1157 1247 1157 1244 1151 1248 1244 1063 1161 1151 1149 1163 1150 1155 1156 1248 1253 1255 1159 1060 1244 1148 1145 1153 1247 1241 1251 1160 1153 1155 1061 1168 1250 1159 1154 1244 1154 1252 1159 1151 1155 1162 1161 1258 1156 1242 1156 1066 1059 1156 1153 1249 1342 1242 1248 1155 1152 1160 1153 1164 1334 1158 1254 1242 1249 1345 1156 1157 1251 1340 1240 1159 1240 1148 1060 1158 1248 1344 1250 1148 1244 1254 1248 1251 1158 1244 1064 1060 1155 1156 1246 1161 975 1248 1059 1153 1246 1156 1237 1063 1150 1154 1148 1250 1246 1154 1149 1158 1342 1250 1161 1247 1246 1249 1247 1163 1244 1153 1151 1152 1247 1158 1145 1244 1244 1147 1247 1337 1060 1065 1154 1156 1247 1252 1155 1161 1061 1254 1153 1243 1242 1249 1247 1157 1161 1243 1072 1245 1342 1156 1156 1242 1151 1249 1149 1149 1250 1246 1255 1246 1245 1152 1247 1162 1242 1153 1159 1152 1166 1246 1157 1159 1063 1154 1247 1249 1151 1251 1151 1156 1149 1247 1250 1160 1333 1150 1248 1246 1342 1149 1159 1064 1249 1249 1155 1156 1241 1152 1333 1347 1242 1151 1156 1248 1250 1244 1251 1345 1247 1245 1246 1155 1157 1155 1250 1162 1158 1245 1251 1157 1155 1163 1240 1065 1154 1237 1343 1155 1152 1249 1066 1061 1153 1159 1159 1248 1242 1251 1163 1160 1059 1153 1246 1248 1067 1247 1246 1246 1251 1154 1245 1341 1248 1253 1333 1156 1246 1245 1251 1155 1149 1246 1148 1249 1069 1344 1245 1149 1247 1246 1157 1247 1150 1065 1253 1068 1156 1255 1156 1161 1064 1151 1158 1161 1154 1149 1155 1155 1252 1164 1152 1150 1244 1157 1246 1151 1248 1152 1240 1249 1239 1157 1153 1245 1246 1342 1152 1150 1068 1154 1335 1247 1165 1246 1150 1153 1248 974 1164 1150 1157 1148 1160 1162 1156 1072 1055 1157 1249 1158 1159 1240 1164 1151 1059 1153 1160 1153 1244 1247 1152 1162 1150 1251 1244 1248 1152 1152 1252 1245 1154 1159 1067 1254 1159 1252 1246 1149 1247 1250 1240 1150 1251 1146 1062 1251 1246 1065 1153 1154 1246 1150 1160 1069 1164 1245 1152 1160 1061 972 1256 1157 1157 1250 1153 1246 1248 1153 1157 1243 1244 1332 1160 1247 1251 1152 1248 1247 1248 1248 1252 1062 1152 1156 1157 1243 1147 1242 1244 1154 1159 1238 1156 1155 1070 1250 1152 1059 1065 1153 1247 1163 1153 1159 1248 1157 1144 1160 1153 1162 1154 1244 1154 1156 1248 1246 1339 1159 1244 1065 1155 1340 1340 1245 1237 1251 1067 1157 1250 1158 1343 1242 1247 1067 1153 1158 1251 1244 1155 1250 1158 1248 1160 1152 1254 1153 1149 1245 1343 1243 1252 1156 1249 1248 1246 1249 1244 1250 1250 1061 1161 1247 1147 1159 1252 1160 1155 1157 1245 1156 1158 1070 1159 1162 1154 1155 1244 1158 1153 1157 1155 1241 1242 1243 1246 1252 1253 1255 1251 1064 1246 1242 1246 1068 1248 1338 1158 1152 1161 1164 1243 1246 1149 1156 1068 1247 1155 1246 1151 1156 1245 1159 1252 1154 1155 1247 1158 1154 1158 1165 1151 1151 1065 1158 1249 1247 1247 1250 1162 1150 1159 1251 1163 1246 1256 1155 1246 1245 1153 1148 1159 1248 1248 1069 1158 1152 1061 1156 1150 1163 1253 1336 1242 1248 1248 1248 1253 1238 1155 1245 1251 1151 1161 1061 1245 1065 1152 1253 1251 1161 1245 1256 1248 1164 1159 1344 1152 1334 1334 1157 1060 1156 1159 1160 1253 1245 1244 1248 1154 1067 1254 1249 1154 1253 1064 1337 1249 1154 1250 1155 1250 1247 1245 1249 1253 1343 1065 1159 1242 1249 1158 1246 1158 1241 1251 1155 1068 1249 1243 1251 1157 1154 1245 1344 1245 1349 1331 1252 1063 1159 1159 1246 1250 1249

Tree=0
num_leaves=10
num_cat=0
split_feature=10 20 18 4 17 14 17 3 21
split_gain=4.82228e-05 2.43486e-05 1.81775e-05 2.60505e-05 1.12321e-05 1.09258e-05 1.55759e-05 1.32568e-05 6.36862e-06
threshold=0.81269743482606172 -0.17711585449557932 -1.0147334233273078 -0.52166757531302255 -0.17864481616887176 -0.21718000036922672 -0.25853739799704084 0.22902427108545342 -0.69025239904900704
decision_type=2 2 2 2 2 2 2 2 2
left_child=2 -2 -1 4 -4 6 -5 -7 -6
right_child=1 -3 3 5 8 7 -8 -9 -10
leaf_value=4.8899030146150184e-06 -2.6967412409915376e-05 -6.5517433752802396e-05 6.1242751375326989e-06 -3.3057338366792131e-05 -5.3284707357467969e-06 -4.604888894505166e-05 -4.8846859501257946e-06 -2.3080052479641305e-05 -2.4558416511493512e-05
leaf_weight=31 29 30 36 33 31 42 38 49 31
leaf_count=31 29 30 36 33 31 42 38 49 31
internal_value=-2.18386e-05 -4.65691e-05 -1.68245e-05 -1.94135e-05 -7.20428e-06 -2.67993e-05 -1.7979e-05 -3.36811e-05 -1.49434e-05
internal_weight=350 59 291 260 98 162 71 91 62
internal_count=350 59 291 260 98 162 71 91 62
is_linear=0
shrinkage=1


Tree=1
num_leaves=11
num_cat=0
split_feature=13 18 12 4 18 1 3 17 4 21
split_gain=3.67567e-05 2.59694e-05 1.70042e-05 1.66739e-05 1.20796e-05 1.70995e-05 1.19448e-05 1.17767e-05 6.73539e-06 5.36383e-06
threshold=0.73806791567447705 -1.0147334233273078 0.44118763699140801 -0.52166757531302255 -0.38985289339758789 -0.15573182591218729 0.22902427108545342 -0.17864481616887176 -0.21610089217821207 -0.69025239904900704
decision_type=2 2 2 2 2 2 2 2 2 2
left_child=1 -1 -2 7 -5 8 -7 -3 -6 -9
right_child=2 3 -4 4 5 6 -8 9 -10 -11
leaf_value=2.9771807903671287e-05 -2.3566888633248365e-06 2.4234747980773211e-05 -3.2372969162235851e-05 -1.9347435988423129e-05 2.3938366044044066e-06 -2.2890700301187197e-05 1.7805134312335499e-06 1.3457276419103435e-05 2.4202595452516108e-05 -4.6312119699602282e-06
leaf_weight=32 29 37 41 39 26 33 38 25 25 36
leaf_count=32 29 37 41 39 26 33 38 25 25 36
internal_value=-4.19731e-07 4.2753e-06 -1.99377e-05 1.12515e-06 -4.81353e-06 -1.67451e-07 -9.68639e-06 1.08816e-05 1.30844e-05 2.7821e-06
internal_weight=361 291 70 259 161 122 71 98 51 61
internal_count=361 291 70 259 161 122 71 98 51 61
is_linear=0
shrinkage=0.03


Tree=2
num_leaves=11
num_cat=0
split_feature=10 18 9 17 17 1 0 21 23 8
split_gain=3.72075e-05 2.29478e-05 1.39806e-05 1.31017e-05 2.03498e-05 1.57312e-05 1.40174e-05 9.16071e-06 5.20626e-06 4.47229e-06
threshold=0.81269743482606172 -1.0147334233273078 0.61810633354705458 -0.17864481616887176 0.10339970662786858 -0.19169682421698603 -0.29504151842647142 -0.72985572514143582 0.086448416953437981 -0.031656774814983225
decision_type=2 2 2 2 2 2 2 2 2 2
left_child=1 -1 -2 6 -5 -6 9 -7 -9 -3
right_child=2 3 -4 4 5 7 -8 8 -10 -11
leaf_value=2.9168170662042907e-05 -3.726326504773977e-05 8.9440748153720044e-06 -7.9507772534270763e-06 -2.4854488829078035e-05 1.7205693740235314e-05 9.097420538132105e-06 2.2535511349775806e-05 -2.0761753010447135e-05 -2.935896167839709e-06 -8.6649690476608357e-06
leaf_weight=31 27 25 32 32 41 27 46 30 29 27
leaf_count=31 27 25 32 32 41 27 46 30 29 27
internal_value=3.39159e-07 4.78549e-06 -2.1365e-05 1.84439e-06 -3.47342e-06 1.91394e-06 1.04723e-05 -5.37632e-06 -1.19999e-05 -1.99083e-07
internal_weight=347 288 59 257 159 127 98 86 59 52
internal_count=347 288 59 257 159 127 98 86 59 52
is_linear=0
shrinkage=0.03


Tree=3
num_leaves=11
num_cat=0
split_feature=0 20 18 4 12 20 18 1 3 13
split_gain=2.72056e-05 3.22496e-05 2.73862e-05 1.72078e-05 1.0312e-05 1.03104e-05 1.42194e-05 9.63592e-06 7.7602e-06 5.97198e-06
threshold=0.93774823966709875 -0.19229013798424158 -1.0147334233273078 -0.52166757531302255 -0.10410272838835122 -0.3595301655196968 0.12775354523543678 -0.15573182591218729 0.30391556364839634 -0.016880081826535352
decision_type=2 2 2 2 2 2 2 2 2 2
left_child=2 -2 -1 4 9 6 -5 -7 -9 -4
right_child=1 -3 3 5 -6 7 -8 8 -10 -11
leaf_value=2.8565100981401936e-05 1.6263066354440524e-06 -4.4022591292349928e-05 1.05241918407728e-05 -3.3253552217502142e-05 2.1960934342272453e-05 9.5928321319119492e-06 -1.8548319025689528e-06 -1.850927269804908e-05 1.7685491314166158e-06 -9.0450000410783102e-06
leaf_weight=34 30 26 32 25 39 47 27 33 35 25
leaf_count=34 30 26 32 25 39 47 27 33 35 25
internal_value=-3.87881e-07 -1.95678e-05 3.22854e-06 -4.69101e-08 1.00742e-05 -5.86505e-06 -1.69504e-05 -8.52554e-07 -8.07216e-06 1.94121e-06
internal_weight=353 56 297 263 96 167 52 115 68 57
internal_count=353 56 297 263 96 167 52 115 68 57
is_linear=0
shrinkage=0.03


Tree=4
num_leaves=12
num_cat=0
split_feature=10 18 4 9 14 17 20 6 13 19 7
split_gain=3.69702e-05 2.88241e-05 2.01002e-05 1.74877e-05 1.26672e-05 1.72294e-05 1.20207e-05 7.47501e-06 9.03262e-06 7.47264e-06 5.6252e-06
threshold=0.81269743482606172 -1.0147334233273078 -0.60095140930155988 0.61810633354705458 -0.21718000036922672 -0.25853739799704084 -0.11494906702129794 0.40481978701180948 0.029389094606312866 -0.034370578867541045 -0.068995281832408967
decision_type=2 2 2 2 2 2 2 2 2 2 2
left_child=1 -1 7 -2 5 -4 10 8 -3 -8 -6
right_child=3 2 4 -5 6 -7 9 -9 -10 -11 -12
leaf_value=3.2310625237954584e-05 -3.7665861913670332e-05 1.9983432484877993e-05 -7.4792965964521636e-06 -5.4317145689062519e-06 -3.0533426663896536e-05 2.1514579784707167e-05 1.1956221614673268e-05 2.7492752635933154e-05 -4.5726610005658581e-06 -9.934032538012615e-06 -1.0784660501788795e-05
leaf_weight=32 28 28 39 33 25 35 25 27 26 32 27
leaf_count=32 28 28 39 33 25 35 25 27 26 32 27
internal_value=1.03869e-06 5.4213e-06 2.16198e-06 -2.02277e-05 -3.34529e-06 6.23402e-06 -9.84867e-06 1.46043e-05 8.16013e-06 -3.33044e-07 -2.02793e-05
internal_weight=357 296 264 61 183 74 109 81 54 57 52
internal_count=357 296 264 61 183 74 109 81 54 57 52
is_linear=0
shrinkage=0.03


Tree=5
num_leaves=12
num_cat=0
split_feature=0 20 18 4 18 18 1 6 7 0 2
split_gain=3.37873e-05 3.03288e-05 1.82665e-05 1.69125e-05 1.42324e-05 1.29079e-05 1.54984e-05 7.5203e-06 6.69589e-06 4.87157e-06 6.30475e-06
threshold=0.96279666378588946 -0.19229013798424158 -1.0486766659192714 -0.52166757531302255 -0.20738499703253338 -0.38985289339758789 -0.15573182591218729 0.40481978701180948 0.095989394315591683 0.17827187455639765 0.53695830779291553
decision_type=2 2 2 2 2 2 2 2 2 2 2
left_child=2 -2 -1 4 -4 -5 -7 8 -6 -8 -11
right_child=1 -3 3 5 7 6 9 -9 -10 10 -12
leaf_value=2.6418111499816433e-05 -3.59347056170615e-07 -4.6215614397078749e-05 3.0000067177192805e-05 -1.9979542971908046e-05 8.2479702593575761e-06 1.3394864768088154e-05 -1.8273223948719011e-05 1.7706381955716868e-05 -1.2894538373914726e-05 8.0578513166983621e-06 -1.3042212295448944e-05
leaf_weight=29 27 25 26 38 28 48 28 26 26 25 26
leaf_count=29 27 25 26 38 28 48 28 26 26 25 26
internal_value=-8.09241e-08 -2.24056e-05 3.78869e-06 1.36709e-06 1.07175e-05 -4.63982e-06 -4.99842e-08 4.45064e-06 -1.93176e-06 -8.21901e-06 -2.69904e-06
internal_weight=352 52 300 271 106 165 127 80 54 79 51
internal_count=352 52 300 271 106 165 127 80 54 79 51
is_linear=0
shrinkage=0.03


Tree=6
num_leaves=11
num_cat=0
split_feature=10 18 9 4 18 1 16 25 4 3
split_gain=3.74994e-05 2.14236e-05 1.77692e-05 1.54479e-05 1.64612e-05 1.22282e-05 1.11212e-05 9.63356e-06 9.25405e-06 9.09672e-06
threshold=0.83795601740234749 -1.0147334233273078 0.61810633354705458 -0.52166757531302255 -0.42338088025766657 -0.15573182591218729 -0.17960229491273619 0.74563827438701902 -0.19697405285023803 0.22902427108545342
decision_type=2 2 2 2 2 2 2 2 2 2
left_child=1 -1 -2 6 -5 8 -3 -8 -6 -7
right_child=2 3 -4 4 5 9 7 -9 -10 -11
leaf_value=2.7184938112441159e-05 -3.9150518978203765e-05 2.6871622083288254e-05 -7.6544199912046001e-06 -2.3486748359573538e-05 -8.7171853430425884e-07 -1.9500651110320177e-05 1.6335318287846432e-05 -5.5619094418943862e-06 2.4691507531679235e-05 1.5211168416003189e-06
leaf_weight=32 28 27 38 33 26 32 33 40 25 44
leaf_count=32 28 27 38 33 26 32 33 40 25 44
internal_value=-5.93779e-07 4.02229e-06 -2.10164e-05 1.17151e-06 -4.60957e-06 2.95522e-07 1.04212e-05 4.33684e-06 1.16593e-05 -7.33015e-06
internal_weight=358 292 66 260 160 127 100 73 51 76
internal_count=358 292 66 260 160 127 100 73 51 76
is_linear=0
shrinkage=0.03


Tree=7
num_leaves=12
num_cat=0
split_feature=10 18 9 1 17 17 21 16 23 22 22
split_gain=3.6395e-05 2.3824e-05 1.6025e-05 7.81203e-06 1.54257e-05 1.01094e-05 8.95714e-06 5.67253e-06 4.63839e-06 4.47239e-06 6.85397e-06
threshold=0.81269743482606172 -1.0147334233273078 0.61810633354705458 -0.15573182591218729 -0.2769354732127613 -0.32400746147307041 -0.72985572514143582 0.059597780609637947 -0.31549729475842264 -0.48941432544597852 0.5388513924619226
decision_type=2 2 2 2 2 2 2 2 2 2 2
left_child=1 -1 -2 5 -5 8 -6 -7 -3 -8 -11
right_child=2 3 -4 4 6 7 9 -9 -10 10 -12
leaf_value=3.3408437389880421e-05 -3.5295554738695497e-05 -9.9763537058606744e-06 -6.131277225974303e-06 1.5949084602956039e-05 5.6286171457031742e-06 2.6632426719515932e-05 -1.2548985768472239e-06 7.8572510226747123e-06 8.2983301923377434e-06 -2.5377171257952631e-05 -5.1971671889207629e-06
leaf_weight=25 30 25 39 36 39 30 26 28 25 33 28
leaf_count=25 30 25 39 36 39 30 26 28 25 33 28
internal_value=8.03127e-07 5.39093e-06 -1.88114e-05 2.79672e-06 -1.36982e-06 9.04653e-06 -6.31808e-06 1.75685e-05 -8.39012e-07 -1.16735e-05 -1.61142e-05
internal_weight=364 295 69 270 162 108 126 58 50 87 61
internal_count=364 295 69 270 162 108 126 58 50 87 61
is_linear=0
shrinkage=0.03


Tree=8
num_leaves=11
num_cat=0
split_feature=10 9 19 13 22 24 3 21 18 8
split_gain=2.73938e-05 1.94941e-05 1.42684e-05 8.35552e-06 1.28747e-05 1.19815e-05 7.71585e-06 6.48713e-06 5.0559e-06 4.54274e-06
threshold=0.77070530158345207 0.4632141525299131 -0.79927894288450474 0.045303681250062934 -0.43207659242150981 0.91713097875845928 0.24299469272875537 1.0000000180025095e-35 0.78899948974183565 -0.49707382862599653
decision_type=2 2 2 2 2 2 2 2 2 2
left_child=2 -2 9 4 -4 6 -5 8 -6 -1
right_child=1 -3 3 5 7 -7 -8 -9 -10 -11
leaf_value=1.0080804051995073e-05 -3.8091055153927302e-05 -4.4799099859807119e-06 1.8884614138068685e-05 -2.5496916118404791e-05 1.1693780222306789e-05 8.3842252938905546e-06 -4.883539384701924e-06 -1.3648801259114407e-05 -5.8678262284956869e-06 2.739613692392595e-05
leaf_weight=30 25 41 46 26 36 38 44 25 25 25
leaf_count=30 25 41 46 26 36 38 44 25 25 25
internal_value=2.60201e-07 -1.72114e-05 4.1691e-06 1.01066e-06 6.07388e-06 -5.17773e-06 -1.25399e-05 -7.78367e-07 4.4964e-06 1.79514e-05
internal_weight=361 66 295 240 132 108 70 86 61 55
internal_count=361 66 295 240 132 108 70 86 61 55
is_linear=0
shrinkage=0.03


Tree=9
num_leaves=12
num_cat=0
split_feature=10 18 18 9 18 19 18 4 6 21 23
split_gain=2.89378e-05 1.71649e-05 1.66764e-05 1.6186e-05 1.40295e-05 9.59165e-06 1.42807e-05 1.07062e-05 6.62725e-06 5.5996e-06 5.43926e-06
threshold=0.81269743482606172 -0.58947865802622468 -0.38985289339758789 0.61810633354705458 -0.27662489201315255 0.076549864691095662 0.88229243147337522 -0.39919410413228579 -0.055867531634867969 0.66612812437785662 1.0000000180025095e-35
decision_type=2 2 2 2 2 2 2 2 2 2 2
left_child=1 9 -3 -2 -4 7 8 10 -7 -1 -6
right_child=3 2 4 -5 5 6 -8 -9 -10 -11 -12
leaf_value=2.8948996477993204e-05 -3.4467250750132166e-05 -2.1036100763792221e-05 2.4704585998551918e-05 -4.7069404306392627e-06 -6.8090445420239113e-06 5.212703475151032e-06 -7.6478176259635277e-06 -1.7271402531540453e-05 2.5464819526942763e-05 1.0117075805283093e-05 1.2789307384781961e-05
leaf_weight=27 29 28 25 38 25 26 35 42 33 30 26
leaf_count=27 29 28 25 38 25 26 35 42 33 30 26
internal_value=2.20928e-07 4.23849e-06 7.23735e-07 -1.75883e-05 3.59768e-06 7.75897e-07 7.534e-06 -6.05487e-06 1.65402e-05 1.90375e-05 3.18227e-06
internal_weight=364 297 240 67 212 187 94 93 59 57 51
internal_count=364 297 240 67 212 187 94 93 59 57 51
is_linear=0
shrinkage=0.03


Tree=10
num_leaves=11
num_cat=0
split_feature=10 18 9 15 12 14 11 11 13 3
split_gain=2.74052e-05 1.539e-05 1.20829e-05 6.99683e-06 7.49153e-06 4.70892e-06 1.67906e-05 1.14916e-05 8.52153e-06 9.81159e-06
threshold=0.83795601740234749 -1.0147334233273078 0.61810633354705458 -1.5939179246953936 0.49175668294723823 -0.21718000036922672 -0.81921880741450026 -0.11302226866420882 0.045303681250062934 0.24299469272875537
decision_type=2 2 2 2 2 2 2 2 2 2
left_child=1 -1 -2 -3 5 6 -5 -7 -9 -10
right_child=2 3 -4 4 -6 7 -8 8 9 -11
leaf_value=2.257750858542054e-05 -3.3295803720344942e-05 1.6300577102811075e-05 -6.901255698254759e-06 -1.0909733439413165e-05 1.2730139910405234e-05 -2.3605643115598256e-05 1.8271128611407526e-05 9.0649810455181785e-06 -2.2140402373527951e-05 5.5176557926894559e-07
leaf_weight=34 27 25 37 35 34 26 36 43 27 47
leaf_count=34 27 25 37 35 34 26 36 43 27 47
internal_value=-1.78569e-07 3.54425e-06 -1.80365e-05 1.1738e-06 -3.51071e-07 -2.42939e-06 3.8862e-06 -5.56511e-06 -1.5561e-06 -7.72781e-06
internal_weight=371 307 64 273 248 214 71 143 117 74
internal_count=371 307 64 273 248 214 71 143 117 74
is_linear=0
shrinkage=0.03


Tree=11
num_leaves=12
num_cat=0
split_feature=3 18 20 23 23 22 13 8 8 6 18
split_gain=1.56887e-05 2.51117e-05 2.12992e-05 2.26392e-05 1.38286e-05 1.20444e-05 1.09672e-05 1.08076e-05 9.08956e-06 6.08529e-06 3.5481e-06
threshold=0.095731699776076831 -0.51578971166181831 0.25720281194663658 0.060190381957555571 0.1646550043070589 -0.74768085744588186 0.50920063910141722 -0.031656774814983225 0.47222216234963493 0.11862474981846173 0.99191274441781985
decision_type=2 2 2 2 2 2 2 2 2 2 2
left_child=1 -1 4 -4 6 -3 -2 -7 -6 -9 -10
right_child=2 5 3 -5 8 7 -8 9 10 -11 -12
leaf_value=2.6359515512178236e-05 -1.2757911747030446e-06 -1.8566357484814942e-05 -4.1085507267174152e-05 -1.8642985901460806e-06 -2.0133552730840164e-05 1.7137939541079013e-05 2.65531717167715e-05 -1.1903320209967204e-05 8.7468797657493262e-06 6.1810260761857907e-06 -6.9375566605837465e-06
leaf_weight=44 25 25 27 26 30 39 26 33 25 34 27
leaf_count=44 25 25 27 26 30 39 26 33 25 34 27
internal_value=3.03167e-07 6.75077e-06 -5.76313e-06 -2.18449e-05 6.45407e-07 1.64626e-07 1.29115e-05 4.58231e-06 -6.98352e-06 -2.72619e-06 6.03038e-07
internal_weight=361 175 186 53 133 131 51 106 82 67 52
internal_count=361 175 186 53 133 131 51 106 82 67 52
is_linear=0
shrinkage=0.03


Tree=12
num_leaves=11
num_cat=0
split_feature=10 18 4 18 1 4 3 25 24 8
split_gain=2.24532e-05 1.31183e-05 1.74519e-05 9.33972e-06 1.19869e-05 1.27137e-05 8.92259e-06 8.89358e-06 7.422e-06 8.05499e-06
threshold=0.81269743482606172 -1.0147334233273078 -0.52166757531302255 -0.38985289339758789 -0.15573182591218729 -0.19697405285023803 0.22902427108545342 -0.81763933693895607 0.91713097875845928 -0.20584067526149336
decision_type=2 2 2 2 2 2 2 2 2 2
left_child=1 -1 8 -4 5 -5 -6 -2 9 -3
right_child=7 2 3 4 6 -7 -8 -9 -10 -11
leaf_value=2.0621855927112682e-05 -2.9850762621082241e-05 1.7696360322588587e-05 -1.9299921330197582e-05 -5.5165189085528254e-06 -2.0715011070184544e-05 2.4738873057503949e-05 7.0754146923807246e-08 -7.3321074811055462e-06 2.4529933762096333e-05 -2.3722572538342016e-06
leaf_weight=33 27 30 35 25 34 25 41 38 25 45
leaf_count=33 27 30 35 25 34 25 41 38 25 45
internal_value=-7.3472e-07 2.80396e-06 5.4246e-07 -5.60217e-06 -1.7668e-06 9.61118e-06 -9.35213e-06 -1.6686e-05 1.03739e-05 5.65519e-06
internal_weight=358 293 260 160 125 50 75 65 100 75
internal_count=358 293 260 160 125 50 75 65 100 75
is_linear=0
shrinkage=0.03


Tree=13
num_leaves=12
num_cat=0
split_feature=10 18 4 14 17 9 9 6 10 8 17
split_gain=2.44041e-05 2.00396e-05 1.13559e-05 1.16589e-05 1.34196e-05 1.06289e-05 1.19873e-05 9.02847e-06 1.22107e-05 7.07421e-06 3.52153e-06
threshold=0.81269743482606172 -1.0147334233273078 -0.60095140930155988 -0.21718000036922672 -0.52535484028693313 -0.25140521844371327 0.062745529808828193 0.40481978701180948 0.11967939136281826 0.78586099349890903 0.12307795608667621
decision_type=2 2 2 2 2 2 2 2 2 2 2
left_child=1 -1 7 4 -4 -5 -7 8 -3 -2 -8
right_child=9 2 3 5 -6 6 10 -9 -10 -11 -12
leaf_value=2.5702775674290023e-05 -2.441394946208675e-05 1.5414936201963309e-05 -1.087660483285112e-05 4.576341655004345e-06 1.5661834114964339e-05 -3.2634215882717403e-05 -1.5162518565323176e-05 2.3229717779031488e-05 -1.2764676593360491e-05 -4.3130412181059141e-06 4.5152602559448076e-07
leaf_weight=33 40 31 27 34 47 25 26 30 25 26 26
leaf_count=33 40 31 27 34 47 25 26 30 25 26 26
internal_value=4.00661e-08 3.63001e-06 9.42177e-07 -3.24491e-06 5.97889e-06 -9.3941e-06 -1.55629e-05 9.94927e-06 2.83475e-06 -1.64954e-05 -7.3555e-06
internal_weight=370 304 271 185 74 111 77 86 56 66 52
internal_count=370 304 271 185 74 111 77 86 56 66 52
is_linear=0
shrinkage=0.03


Tree=14
num_leaves=11
num_cat=0
split_feature=10 25 12 15 11 13 0 3 12 12
split_gain=1.82202e-05 1.32166e-05 1.21887e-05 8.55576e-06 9.35367e-06 1.04108e-05 8.16742e-06 9.50703e-06 6.47254e-06 8.23062e-06
threshold=0.77070530158345207 -0.81763933693895607 0.44118763699140801 -1.4880696062932905 -0.95406975444206832 -0.41976403624339143 -0.22555759721239091 -0.0925002716027198 -0.030833057497414395 -0.32460845158666274
decision_type=2 2 2 2 2 2 2 2 2 2
left_child=2 -2 3 -1 -5 -6 -7 -8 9 -9
right_child=1 -3 -4 4 5 6 7 8 -10 -11
leaf_value=1.61694482933074e-05 -3.0747747850210329e-05 -3.6529799890135912e-06 1.7461211326344313e-05 -1.7626922056349161e-05 1.8189996953879014e-05 -1.7699699175136628e-05 1.6869431411679317e-05 -8.2035101663028144e-06 -1.1667703932895771e-05 1.4412282796001818e-05
leaf_weight=28 26 43 46 28 27 25 27 28 45 30
leaf_count=28 26 43 46 28 27 25 27 28 45 30
internal_value=-3.50638e-08 -1.38626e-05 3.32444e-06 5.92127e-07 -1.48485e-06 9.98547e-07 -1.99609e-06 1.02383e-06 -3.12987e-06 3.49431e-06
internal_weight=353 69 284 238 210 182 155 130 103 58
internal_count=353 69 284 238 210 182 155 130 103 58
is_linear=0
shrinkage=0.03


Tree=15
num_leaves=11
num_cat=0
split_feature=0 18 20 4 14 20 17 12 8 19
split_gain=2.53867e-05 1.78154e-05 1.72569e-05 1.10279e-05 9.87093e-06 1.30058e-05 8.88091e-06 7.99114e-06 9.3577e-06 7.60308e-06
threshold=0.96279666378588946 -1.0147334233273078 -0.22891170021447874 -0.52166757531302255 -0.21718000036922672 -0.10301428799847219 -0.24261952306403525 -0.10410272838835122 0.27946736503267383 0.040945003198398298
decision_type=2 2 2 2 2 2 2 2 2 2
left_child=1 -1 -2 7 6 -6 -5 8 -3 -7
right_child=2 3 -4 4 5 9 -8 -9 -10 -11
leaf_value=2.4759285940945117e-05 -2.1722528631821313e-06 1.2531017094073938e-05 -3.7080691582559663e-05 -5.2687699894704562e-06 -2.0529726674683432e-05 1.0599925768591704e-05 1.7261399394380035e-05 1.8902461343454239e-05 -1.0888784221866184e-05 -1.1175539290459507e-05
leaf_weight=32 26 34 25 32 49 31 31 42 28 27
leaf_count=32 26 34 25 32 49 31 31 42 28 27
internal_value=3.11702e-07 3.57769e-06 -1.92842e-05 1.10393e-06 -3.6035e-06 -9.15045e-06 5.8175e-06 8.79877e-06 1.95433e-06 4.63071e-07
internal_weight=357 306 51 274 170 107 63 104 62 58
internal_count=357 306 51 274 170 107 63 104 62 58
is_linear=0
shrinkage=0.03


Tree=16
num_leaves=11
num_cat=0
split_feature=10 25 20 2 20 20 21 4 1 2
split_gain=1.95562e-05 1.36326e-05 1.18858e-05 1.08017e-05 1.06948e-05 1.01223e-05 7.55128e-06 6.88851e-06 7.05571e-06 6.21719e-06
threshold=0.77070530158345207 0.74563827438701902 -0.79624103986271 -0.36085466345164002 -0.45437814457499731 -0.19229013798424158 0.17950536205833947 -0.39919410413228579 -0.15573182591218729 0.25852018580470704
decision_type=2 2 2 2 2 2 2 2 2 2
left_child=1 3 -3 -1 -5 -2 7 -4 -9 -6
right_child=5 2 6 4 9 -7 -8 8 -10 -11
leaf_value=2.7963215570707687e-05 -3.2061163131272352e-06 -2.1508744270809423e-05 1.3652604347636191e-05 1.7926322467252337e-05 -1.0189248882722625e-05 -2.6022286971315874e-05 -1.3477341756067918e-05 8.473639273478722e-06 -1.3627768371756807e-05 8.7767372575139484e-06
leaf_weight=25 35 26 43 41 35 35 26 26 26 28
leaf_count=25 35 26 43 41 35 35 26 26 26 28
internal_value=-4.52003e-07 3.13986e-06 -3.10601e-06 1.02572e-05 6.001e-06 -1.46142e-05 8.48295e-07 4.769e-06 -2.57706e-06 -1.75992e-06
internal_weight=346 276 147 129 104 70 121 95 52 63
internal_count=346 276 147 129 104 70 121 95 52 63
is_linear=0
shrinkage=0.03


Tree=17
num_leaves=10
num_cat=0
split_feature=3 6 18 7 4 19 17 16 7
split_gain=2.49062e-05 1.2865e-05 1.22167e-05 1.04972e-05 9.8893e-06 8.19662e-06 7.93724e-06 7.72789e-06 3.96036e-06
threshold=0.095731699776076831 -0.15621149545392146 -0.51578971166181831 0.22557719756540195 -0.46243607287800631 -0.23619955291076933 -0.05718667425659673 -0.0698566596676332 -0.12079372241687565
decision_type=2 2 2 2 2 2 2 2 2
left_child=2 6 -1 -3 -5 -4 -2 -7 -9
right_child=1 3 5 4 -6 7 -8 8 -10
leaf_value=2.2066854782716124e-05 -6.9028128967017562e-06 1.1816816439442427e-05 -6.8051318139623611e-06 3.4946911207868629e-06 -1.6517093213421859e-05 2.367691987346916e-05 -2.9295972018534767e-05 -4.6965510126837113e-06 1.0796083366089574e-05
leaf_weight=49 28 39 40 43 46 25 29 27 33
leaf_count=49 28 39 40 43 46 25 29 27 33
internal_value=1.22267e-06 -6.44065e-06 9.37045e-06 -1.1614e-06 -6.84848e-06 4.39345e-06 -1.82958e-05 9.66337e-06 3.8244e-06
internal_weight=359 185 174 128 89 125 57 85 60
internal_count=359 185 174 128 89 125 57 85 60
is_linear=0
shrinkage=0.03


Tree=18
num_leaves=12
num_cat=0
split_feature=10 4 21 7 12 9 1 2 4 0 9
split_gain=2.37223e-05 9.98912e-06 9.73527e-06 1.09247e-05 8.76496e-06 7.1777e-06 6.85849e-06 1.23958e-05 6.22916e-06 7.46933e-06 6.06387e-06
threshold=0.78457357528153826 -0.60095140930155988 -0.80215918117867913 -0.60627652552823608 -0.10410272838835122 0.44686835793809571 -1.2194878960688293 -0.26117928415277153 -0.39919410413228579 0.34450787950085743 0.20839092151403965
decision_type=2 2 2 2 2 2 2 2 2 2 2
left_child=1 4 -3 -4 10 -2 -5 -8 -9 -10 -1
right_child=5 2 3 6 -6 -7 7 8 9 -11 -12
leaf_value=1.460022539104102e-05 -2.9550901445327326e-05 -1.8083579448284581e-05 1.4369040806567236e-05 -1.6584429887006989e-05 2.4080563154598166e-05 -9.2480698718385856e-06 1.8985349932756012e-05 6.9151579454824214e-06 -1.9021368847461417e-05 2.206501815705381e-06 -6.0928247089227973e-06
leaf_weight=25 25 25 47 25 32 42 26 29 35 26 26
leaf_count=25 25 25 47 25 32 42 26 29 35 26 26
internal_value=-7.04123e-07 2.94458e-06 -4.9566e-07 1.84316e-06 1.17731e-05 -1.68238e-05 -2.33213e-06 7.39481e-07 -4.53155e-06 -9.97342e-06 4.05083e-06
internal_weight=363 296 213 188 83 67 141 116 90 61 51
internal_count=363 296 213 188 83 67 141 116 90 61 51
is_linear=0
shrinkage=0.03


Tree=19
num_leaves=11
num_cat=0
split_feature=10 4 12 7 12 19 8 4 12 10
split_gain=2.64756e-05 8.94371e-06 1.89942e-05 1.11534e-05 8.75713e-06 1.05238e-05 8.60109e-06 7.72793e-06 3.80125e-06 1.98106e-06
threshold=0.81269743482606172 1.4877302950540534 0.3360472355807847 -0.60627652552823608 -1.3537600203311682 0.040945003198398298 0.78586099349890903 -0.39919410413228579 -0.42868003259313453 0.014163901148092363
decision_type=2 2 2 2 2 2 2 2 2 2
left_child=1 2 3 -1 -5 7 -2 9 -7 -6
right_child=6 -3 -4 4 5 8 -8 -9 -10 -11
leaf_value=2.012204643304156e-05 -2.6704298359522666e-05 -1.2660954295521756e-05 2.4778678471193414e-05 1.4431436477025272e-05 3.3978857118983861e-06 -1.164108464515514e-06 -4.0470823121722788e-06 -1.8982648138643167e-05 1.323522576058167e-05 -8.1259603961370877e-06
leaf_weight=27 38 27 39 30 29 33 25 43 33 25
leaf_count=27 38 27 39 30 29 33 25 43 33 25
internal_value=-1.08013e-07 3.77008e-06 5.48297e-06 2.06237e-06 -4.64115e-07 -3.20563e-06 -1.77133e-05 -9.49345e-06 6.03556e-06 -1.93723e-06
internal_weight=349 286 259 220 193 163 63 97 66 54
internal_count=349 286 259 220 193 163 63 97 66 54
is_linear=0
shrinkage=0.03


Tree=20
num_leaves=10
num_cat=0
split_feature=10 7 18 7 1 9 17 4 10
split_gain=1.37477e-05 1.8288e-05 1.03115e-05 8.64579e-06 8.50375e-06 7.07092e-06 6.14773e-06 3.27313e-06 2.81964e-06
threshold=-0.31303990054523784 -0.73338445298804467 0.99191274441781985 -0.66803050515145213 -0.95366677974988201 0.61810633354705458 -0.25853739799704084 -0.3257717209055469 0.10849315017571538
decision_type=2 2 2 2 2 2 2 2 2
left_child=3 -2 5 -1 -5 6 -3 8 -8
right_child=1 2 -4 4 -6 -7 7 -9 -10
leaf_value=2.5173117888334671e-05 -2.2600496229495399e-05 9.0226286508065339e-06 -1.4290475316827083e-05 -3.7030624735052699e-06 1.5858858904114945e-05 1.3717539744860449e-05 6.4133739260796566e-06 -1.1566953134357997e-05 -6.3886406944391177e-06
leaf_weight=25 37 45 37 45 36 43 30 36 32
leaf_count=25 37 45 37 45 36 43 30 36 32
internal_value=6.45e-07 -3.06746e-06 1.7345e-07 9.75103e-06 4.99112e-06 3.05068e-06 -1.56834e-07 -4.37189e-06 -1.94117e-07
internal_weight=366 260 223 106 81 186 143 98 62
internal_count=366 260 223 106 81 186 143 98 62
is_linear=0
shrinkage=0.03


Tree=21
num_leaves=11
num_cat=0
split_feature=10 18 4 18 9 17 9 21 15 18
split_gain=1.56599e-05 1.05526e-05 1.00204e-05 9.67191e-06 8.31374e-06 5.78375e-06 5.49202e-06 5.2073e-06 4.56966e-06 3.32532e-06
threshold=0.81269743482606172 -1.0147334233273078 -0.52166757531302255 -0.38985289339758789 0.61810633354705458 -0.17864481616887176 -0.16096480474309896 -0.69025239904900704 -0.11191707278656012 0.88229243147337522
decision_type=2 2 2 2 2 2 2 2 2 2
left_child=1 -1 5 -4 -2 -3 -5 -7 9 -8
right_child=4 2 3 6 -6 7 8 -9 -10 -11
leaf_value=1.8609228689456357e-05 -2.6446572148164828e-05 1.6916672951386621e-05 -1.7784560923945931e-05 1.0277909522294007e-05 -4.9934018996380578e-06 1.1388153438164848e-05 8.1659172127697744e-06 -5.6936572476236812e-06 -1.2493164753863852e-05 -6.3283801604744175e-06
leaf_weight=30 29 36 39 31 37 29 29 36 37 28
leaf_count=30 29 36 39 31 37 29 29 36 37 28
internal_value=-1.20985e-06 1.74559e-06 -1.63501e-07 -4.74154e-06 -1.44198e-05 7.27015e-06 -6.7212e-07 1.92746e-06 -4.2833e-06 1.04591e-06
internal_weight=361 295 265 164 66 101 125 65 94 57
internal_count=361 295 265 164 66 101 125 65 94 57
is_linear=0
shrinkage=0.03


Tree=22
num_leaves=11
num_cat=0
split_feature=22 8 3 12 6 9 14 10 4 6
split_gain=1.40053e-05 1.9929e-05 9.44719e-06 9.48673e-06 6.3102e-06 6.09006e-06 5.36053e-06 8.64696e-06 6.36828e-06 4.38112e-06
threshold=-1.2847116825313287 -0.30555533801824242 0.10404840239657777 -0.2419231649772012 0.71227404127244853 0.75878160874150358 0.88848910973508621 0.49605517730644955 -0.64013058018305513 0.14265428930483198
decision_type=2 2 2 2 2 2 2 2 2 2
left_child=-1 2 3 -2 6 -6 7 8 -3 -10
right_child=1 4 -4 -5 5 -7 -8 -9 9 -11
leaf_value=-1.5648586830658523e-05 1.0749326908938071e-05 6.338519569302055e-06 1.6378673096588844e-06 3.5915127552400985e-05 -1.3051947804770487e-06 1.819993043609429e-05 8.3076997123918348e-06 -1.9548925508778275e-05 -2.3637352484113263e-06 -1.7075468610434248e-05
leaf_weight=42 28 45 29 26 34 25 26 35 49 29
leaf_count=42 28 45 29 26 34 25 26 35 49 29
internal_value=6.56693e-07 2.75737e-06 1.54491e-05 2.28662e-05 -1.57765e-06 6.95969e-06 -4.31517e-06 -6.39235e-06 -2.6486e-06 -7.83348e-06
internal_weight=368 326 83 54 243 59 184 158 123 78
internal_count=368 326 83 54 243 59 184 158 123 78
is_linear=0
shrinkage=0.03


Tree=23
num_leaves=11
num_cat=0
split_feature=0 20 18 4 21 18 25 16 1 3
split_gain=1.41117e-05 2.24362e-05 1.49792e-05 1.23618e-05 1.19456e-05 8.03125e-06 9.00788e-06 7.32395e-06 7.44077e-06 8.4601e-06
threshold=0.96279666378588946 -0.19229013798424158 -0.98849812418210792 -0.52166757531302255 -0.72985572514143582 -0.25987102334103518 0.74563827438701902 -0.44804468221655752 -0.15573182591218729 0.22902427108545342
decision_type=2 2 2 2 2 2 2 2 2 2
left_child=2 -2 -1 5 -5 -4 -7 -6 -9 -10
right_child=1 -3 3 4 7 6 -8 8 9 -11
leaf_value=2.1059667263346325e-05 3.2638720691583359e-06 -3.4933993957019995e-05 2.307745325488213e-05 -2.3986347203026523e-05 -1.5268433005206001e-05 1.5176278553553858e-05 -4.9265188112684052e-06 1.0697300571057533e-05 -1.6500206613272896e-05 5.0707367987949204e-06
leaf_weight=35 31 25 25 25 28 35 47 49 30 36
leaf_count=35 31 25 25 25 28 35 47 49 30 36
internal_value=7.10696e-08 -1.37887e-05 2.57478e-06 2.22156e-07 -4.85397e-06 8.19215e-06 3.65394e-06 -1.50915e-06 1.84094e-06 -4.73424e-06
internal_weight=366 56 310 275 168 107 82 143 115 66
internal_count=366 56 310 275 168 107 82 143 115 66
is_linear=0
shrinkage=0.03


Tree=24
num_leaves=12
num_cat=0
split_feature=22 22 20 22 18 4 4 7 7 22 4
split_gain=1.46457e-05 1.32973e-05 7.47932e-06 5.21459e-06 7.8533e-06 1.1451e-05 8.63817e-06 9.72239e-06 6.33009e-06 4.4433e-06 1.34614e-06
threshold=-1.2847116825313287 -0.45816729295393299 0.14794662223714417 -0.25502936403157311 0.99191274441781985 1.0000000180025095e-35 -0.39919410413228579 0.58237331166760109 0.03701326155680406 -0.79217552462147467 -0.42819286053276245
decision_type=2 2 2 2 2 2 2 2 2 2 2
left_child=-1 2 9 -3 5 6 7 8 -5 -2 -6
right_child=1 3 -4 4 10 -7 -8 -9 -10 -11 -12
leaf_value=-1.7020276063004321e-05 -3.6298077640822157e-06 -1.2683627814582113e-05 2.3550906478382838e-05 7.5703363024960987e-06 -4.8601638656691647e-06 1.7702027396353514e-05 -1.6149873314274233e-05 1.8101231887287992e-05 -1.2358349706573789e-05 1.4256434937851736e-05 -1.4705068728653715e-05
leaf_weight=39 25 31 34 26 25 40 26 28 32 25 25
leaf_count=39 25 31 34 26 25 40 26 28 32 25 25
internal_value=3.27705e-07 2.462e-06 1.26952e-05 -1.22722e-06 5.30939e-07 3.92356e-06 -9.97327e-07 3.58367e-06 -3.4248e-06 5.31331e-06 -9.78262e-06
internal_weight=356 317 84 233 202 152 112 86 58 50 50
internal_count=356 317 84 233 202 152 112 86 58 50 50
is_linear=0
shrinkage=0.03


Tree=25
num_leaves=11
num_cat=0
split_feature=22 8 3 6 22 8 21 22 10 22
split_gain=1.6636e-05 1.81566e-05 1.57368e-05 8.03809e-06 7.61843e-06 6.35965e-06 6.35073e-06 8.14082e-06 7.38409e-06 1.04478e-05
threshold=-1.3274391451776619 -0.35008105974980103 0.21411156293834507 -0.02992564658288235 -0.46449291289120298 0.64207285983880125 0.45409990485652602 0.30703306919656065 0.77070530158345207 0.95645678802896172
decision_type=2 2 2 2 2 2 2 2 2 2
left_child=-1 2 -2 4 -3 -6 7 -5 9 -9
right_child=1 3 -4 6 5 -7 -8 8 -10 -11
leaf_value=-1.9835117508184914e-05 2.4671188923209828e-05 3.4796400432242077e-06 -4.7883724723760681e-06 1.8720368878868091e-05 -2.1584955808397021e-05 -3.0897673423169182e-06 -1.1845402443668718e-05 -6.0318403650757986e-06 -1.3704219089413527e-05 1.621439251386236e-05
leaf_weight=38 47 30 25 28 44 27 26 38 25 38
leaf_count=38 47 30 25 28 44 27 26 38 25 38
internal_value=-1.04412e-06 1.13288e-06 1.44422e-05 -2.61036e-06 -9.19577e-06 -1.45516e-05 1.68078e-06 4.40699e-06 4.38926e-07 5.09128e-06
internal_weight=366 328 72 256 101 71 155 129 101 76
internal_count=366 328 72 256 101 71 155 129 101 76
is_linear=0
shrinkage=0.03


Tree=26
num_leaves=11
num_cat=0
split_feature=3 23 23 23 15 23 3 17 12 11
split_gain=1.06774e-05 1.82708e-05 1.82815e-05 1.65621e-05 6.8163e-06 1.31385e-05 8.13998e-06 5.86357e-06 6.25023e-06 5.38209e-06
threshold=0.095731699776076831 -0.84108021358088381 0.1646550043070589 -1.0307547420163492 1.0000000180025095e-35 -0.36610184999665601 -0.23523619243931218 -0.2769354732127613 0.13823884187953359 -1.4399941040689304
decision_type=2 2 2 2 2 2 2 2 2 2
left_child=3 -2 -3 -1 5 -5 9 -4 -9 -7
right_child=1 2 7 4 -6 6 -8 8 -10 -11
leaf_value=2.4050263848895316e-05 -2.8950365594937464e-05 1.4275882249808574e-05 2.717553669490078e-06 -1.7813378867556042e-05 1.3821627443544927e-05 1.5728599741123615e-06 -7.9812601278160485e-06 -6.5965387916920158e-06 -2.503043438773602e-05 2.1067942547793229e-05
leaf_weight=34 25 47 31 35 29 25 31 49 25 26
leaf_count=34 25 47 31 35 29 25 31 49 25 26
internal_value=4.81711e-08 -5.18384e-06 -1.27487e-06 5.19298e-06 8.01561e-07 -2.42564e-06 4.1423e-06 -8.23569e-06 -1.28242e-05 1.15115e-05
internal_weight=357 177 152 180 146 117 82 105 74 51
internal_count=357 177 152 180 146 117 82 105 74 51
is_linear=0
shrinkage=0.03


Tree=27
num_leaves=11
num_cat=0
split_feature=10 9 18 23 18 18 3 3 0 7
split_gain=1.41457e-05 9.11532e-06 8.46177e-06 9.55156e-06 8.21601e-06 7.57166e-06 1.24798e-05 7.17943e-06 8.81777e-06 5.78463e-06
threshold=0.81269743482606172 0.44686835793809571 -1.0685276461901887 -0.38688220656438499 0.99191274441781985 -0.48125553069377613 -0.23523619243931218 -0.31211448045592599 0.29233384487293096 0.29284776473447088
decision_type=2 2 2 2 2 2 2 2 2 2
left_child=2 -2 -1 5 7 -4 -7 -5 9 -9
right_child=1 -3 3 4 -6 6 -8 8 -10 -11
leaf_value=1.7887038377791345e-05 -2.7423357922816648e-05 -4.5436754278073614e-06 3.8376273038342003e-06 2.0572099292621714e-05 -9.9915884468295002e-06 -2.9431580964963081e-05 -8.0822944663192039e-07 4.871006205576123e-06 1.4310748108725776e-05 -1.2555778351270419e-05
leaf_weight=28 25 42 33 30 29 26 29 40 46 30
leaf_count=28 25 42 33 30 29 26 29 40 46 30
internal_value=-6.5288e-07 -1.30809e-05 2.20855e-06 5.39354e-07 4.59353e-06 -7.52293e-06 -1.43393e-05 7.49058e-06 4.10743e-06 -2.59762e-06
internal_weight=358 67 291 263 175 88 55 146 116 70
internal_count=358 67 291 263 175 88 55 146 116 70
is_linear=0
shrinkage=0.03


Tree=28
num_leaves=11
num_cat=0
split_feature=10 9 18 23 15 4 19 12 13 7
split_gain=1.07077e-05 9.76722e-06 9.73673e-06 1.11215e-05 1.10594e-05 9.09346e-06 9.4831e-06 7.39313e-06 6.84417e-06 2.97448e-06
threshold=0.81269743482606172 0.61810633354705458 -0.48125553069377613 -0.38688220656438499 0.068144872780570936 -0.39919410413228579 0.34676398364721944 -0.5429647253237001 0.016628706227351641 0.063552704952380537
decision_type=2 2 2 2 2 2 2 2 2 2
left_child=2 -2 8 4 -4 7 -7 -5 -1 -9
right_child=1 -3 3 5 -6 6 -8 9 -10 -11
leaf_value=1.9183581515368664e-05 -2.5333611518882596e-05 -1.7089020548155531e-06 -2.8031009685946628e-05 -3.0202054758037038e-06 -3.4011517224522923e-07 -1.611027304953985e-05 5.5660772341070694e-06 2.1375460853758138e-05 -4.9258509814255649e-07 8.5519272450743829e-06
leaf_weight=41 28 36 25 37 27 39 34 27 26 41
leaf_count=41 28 36 25 37 27 39 34 27 26 41
internal_value=-9.14503e-07 -1.20447e-05 1.48393e-06 -1.4478e-06 -1.3653e-05 2.11778e-06 -6.01444e-06 7.77161e-06 1.15481e-05 1.36436e-05
internal_weight=361 64 297 230 52 178 73 105 67 68
internal_count=361 64 297 230 52 178 73 105 67 68
is_linear=0
shrinkage=0.03


Tree=29
num_leaves=11
num_cat=0
split_feature=0 18 23 20 2 17 1 4 12 22
split_gain=1.32495e-05 1.59033e-05 1.00565e-05 9.91207e-06 8.64891e-06 7.99161e-06 7.18691e-06 8.00952e-06 4.20108e-06 3.55725e-06
threshold=0.96279666378588946 -0.98849812418210792 -0.38688220656438499 0.34995869044828715 -0.23271517890775079 -0.38171903694157688 -0.15573182591218729 -0.39919410413228579 -0.19616875399708802 0.10319115146730171
decision_type=2 2 2 2 2 2 2 2 2 2
left_child=1 -1 3 4 -3 -4 9 8 -8 -7
right_child=-2 2 5 -5 -6 6 7 -9 -10 -11
leaf_value=2.1563801586607414e-05 -1.4735131950942557e-05 -2.7802223217544708e-05 1.5418093050645504e-05 5.4299307976179987e-06 -4.6188661435735409e-06 1.7493406720369908e-05 -5.745408803340979e-06 -1.3358734781238878e-05 1.0667825299606192e-05 1.6442262000055053e-06
leaf_weight=34 48 28 41 30 30 26 25 46 32 25
leaf_count=34 48 28 41 30 30 26 25 46 32 25
internal_value=-4.64054e-08 2.17776e-06 -1.51311e-07 -8.56966e-06 -1.58108e-05 3.64774e-06 5.14075e-07 -4.04628e-06 3.46904e-06 9.7242e-06
internal_weight=365 317 283 88 58 195 154 103 57 51
internal_count=365 317 283 88 58 195 154 103 57 51
is_linear=0
shrinkage=0.03


Tree=30
num_leaves=11
num_cat=0
split_feature=10 18 22 13 4 1 17 4 0 6
split_gain=1.58491e-05 1.29218e-05 1.23783e-05 9.09359e-06 7.10182e-06 7.03606e-06 1.06094e-05 7.69919e-06 6.51034e-06 4.02992e-06
threshold=0.77070530158345207 -0.48125553069377613 -0.79217552462147467 0.50047246159606384 0.048898381736782619 -0.15573182591218729 -0.32400746147307041 -0.45626612470769207 -0.72512092408884909 0.36767048372087158
decision_type=2 2 2 2 2 2 2 2 2 2
left_child=1 8 -3 5 -2 6 -4 9 -1 -7
right_child=4 2 3 -5 -6 7 -8 -9 -10 -11
leaf_value=2.6327219831930251e-05 -5.4864888178322559e-06 -1.7366418912843073e-05 -5.7578719966958511e-06 1.9655078000505452e-05 -2.535138694438501e-05 -4.8894535319732312e-06 1.749943147066316e-05 -1.3505139620519912e-05 7.1634566456151122e-06 1.1512693140852767e-05
leaf_weight=27 46 32 31 25 25 28 41 48 39 26
leaf_count=27 46 32 31 25 25 28 41 48 39 26
internal_value=2.52335e-07 3.29637e-06 -4.84293e-08 2.73637e-06 -1.24812e-05 3.05525e-07 7.48587e-06 -4.76295e-06 1.50032e-05 3.00788e-06
internal_weight=368 297 231 199 71 174 72 102 66 54
internal_count=368 297 231 199 71 174 72 102 66 54
is_linear=0
shrinkage=0.03


Tree=31
num_leaves=11
num_cat=0
split_feature=18 7 22 22 17 8 8 8 4 4
split_gain=1.02065e-05 1.02501e-05 4.59248e-06 9.20032e-06 1.33495e-05 9.89526e-06 8.945e-06 8.06257e-06 7.02655e-06 8.30078e-06
threshold=-0.98849812418210792 -0.73338445298804467 1.0229408163357909 0.30703306919656065 0.39924513926923494 0.43741829164316243 1.0502378185647581 0.16221562650417284 -0.5013067463509856 -0.19697405285023803
decision_type=2 2 2 2 2 2 2 2 2 2
left_child=-1 -2 3 4 7 -5 -4 8 -3 -10
right_child=1 2 6 5 -6 -7 -8 -9 9 -11
leaf_value=1.6009851036263476e-05 -1.8177021832213672e-05 1.3085551504077188e-05 1.8703126112417191e-05 -1.9569784674941487e-05 2.0934623377005692e-05 8.0466398639108169e-07 -4.5803705223887744e-06 -1.6303071026777616e-05 -1.5466074625822199e-05 6.9006432431706338e-06
leaf_weight=36 28 37 33 41 31 45 27 25 28 32
leaf_count=36 28 37 33 41 31 45 27 25 28 32
internal_value=8.48794e-07 -8.20313e-07 8.05065e-07 -1.05782e-06 3.35511e-06 -8.90874e-06 8.22555e-06 -1.11181e-06 2.80346e-06 -3.53716e-06
internal_weight=363 327 299 239 153 86 60 122 97 60
internal_count=363 327 299 239 153 86 60 122 97 60
is_linear=0
shrinkage=0.03


Tree=32
num_leaves=11
num_cat=0
split_feature=7 8 9 23 15 7 12 20 7 4
split_gain=1.69314e-05 1.08315e-05 5.36755e-06 6.71085e-06 5.01541e-06 7.9155e-06 5.65112e-06 5.39656e-06 6.17041e-06 5.01634e-06
threshold=-1.3443406732882355 -0.24688983954561103 -0.67674324747460257 -0.60559267295271402 -1.435901759559751 0.22557719756540195 -0.20635687531603328 -0.12270299407847261 0.64791541644898876 0.0035492626849732748
decision_type=2 2 2 2 2 2 2 2 2 2
left_child=-1 2 -2 -4 -3 6 -6 8 -7 -8
right_child=1 4 3 -5 5 7 9 -9 -10 -11
leaf_value=-2.3227364928551163e-05 2.0495678535894511e-05 1.0588685565582838e-05 -6.2469659468870997e-06 1.3754777093405816e-05 -7.9439863617380974e-06 -1.3893935488990142e-05 1.3267081150378872e-06 -1.7943792648312551e-05 5.3901925389254753e-06 1.774924975716903e-05
leaf_weight=26 32 27 26 36 32 28 47 39 32 26
leaf_count=26 32 27 26 36 32 28 47 39 32 26
internal_value=6.8011e-08 1.93164e-06 1.05172e-05 5.36695e-06 -1.56203e-06 -3.17021e-06 2.56789e-06 -9.25608e-06 -3.60907e-06 7.17583e-06
internal_weight=351 325 94 62 231 204 105 99 60 73
internal_count=351 325 94 62 231 204 105 99 60 73
is_linear=0
shrinkage=0.03


Tree=33
num_leaves=13
num_cat=0
split_feature=11 18 4 21 16 7 16 24 8 8 8 16
split_gain=1.34473e-05 1.69929e-05 7.94145e-06 1.30274e-05 7.07325e-06 7.62983e-06 5.77271e-06 6.06938e-06 4.46969e-06 7.03258e-06 4.67193e-06 1.96664e-06
threshold=1.1724243078834158 -0.90251781084401161 -0.60095140930155988 -0.85234974644504269 -0.44804468221655752 -0.53193753111123054 -0.17069875506468965 0.91713097875845928 0.48973115568917802 1.123106564182021 0.1008382870138842 0.059597780609637947
decision_type=2 2 2 2 2 2 2 2 2 2 2 2
left_child=1 -1 6 -4 -5 -6 -3 -8 10 -10 11 -7
right_child=-2 2 3 4 5 8 7 -9 9 -11 -12 -13
leaf_value=2.4176810849086097e-05 -1.9608675545896403e-05 1.8903304485138503e-05 -2.3786309975548646e-05 -1.4998019217143467e-05 1.6214599650433788e-05 5.0227200685185381e-06 -5.8047766763663201e-06 1.1823720697563545e-05 1.5471557861539103e-05 -5.9869233822003781e-06 -1.6605537360961674e-05 -6.8767927543376567e-06
leaf_weight=27 30 25 26 28 26 25 39 32 28 27 26 25
leaf_count=27 30 25 26 28 26 25 39 32 28 27 26 25
internal_value=-3.68899e-07 1.35923e-06 -6.47533e-07 -3.90212e-06 -1.10759e-06 1.36968e-06 6.50579e-06 2.14046e-06 -1.57663e-06 4.93739e-06 -6.29073e-06 -9.27036e-07
internal_weight=364 334 307 211 185 157 96 71 131 55 76 50
internal_count=364 334 307 211 185 157 96 71 131 55 76 50
is_linear=0
shrinkage=0.03


Tree=34
num_leaves=12
num_cat=0
split_feature=11 18 4 18 21 24 17 15 22 8 23
split_gain=1.41671e-05 1.04454e-05 1.03294e-05 1.12797e-05 9.91183e-06 5.65832e-06 3.88749e-06 5.23411e-06 3.60601e-06 8.85928e-06 3.21374e-06
threshold=1.1724243078834158 -0.98849812418210792 -0.52166757531302255 -0.25987102334103518 -0.80215918117867913 0.91713097875845928 0.69057906890748322 0.48153494759075582 -0.44678083888173886 0.48973115568917802 0.10478228770991614
decision_type=2 2 2 2 2 2 2 2 2 2 2
left_child=1 -1 3 -3 -4 10 7 8 -6 -10 -5
right_child=-2 2 4 5 6 -7 -8 -9 9 -11 -12
leaf_value=2.0207986392779276e-05 -1.9966710391599917e-05 2.4696177079022163e-05 -2.2077501041349024e-05 -9.6388808792240029e-06 6.6708765871226201e-07 1.1891421662117603e-05 7.9752269084565331e-06 6.6626953357920303e-06 -2.2089399748545153e-05 4.8167328776767608e-07 3.7040461961623803e-06
leaf_weight=25 30 25 25 33 32 35 30 31 34 29 32
leaf_count=25 30 25 25 33 32 35 30 31 34 29 32
internal_value=-2.26073e-07 1.56311e-06 3.98339e-08 6.6724e-06 -4.54067e-06 2.16646e-06 -1.73028e-06 -4.04112e-06 -7.53394e-06 -1.16995e-05 -3.07006e-06
internal_weight=361 331 306 125 181 100 156 126 95 63 65
internal_count=361 331 306 125 181 100 156 126 95 63 65
is_linear=0
shrinkage=0.03


Tree=35
num_leaves=12
num_cat=0
split_feature=4 19 15 18 24 1 23 7 18 18 8
split_gain=1.41858e-05 1.34445e-05 9.35937e-06 8.7654e-06 8.29427e-06 1.37607e-05 1.0327e-05 7.27892e-06 4.97824e-06 6.41139e-06 3.14768e-06
threshold=1.6587921080760142 -1.0679530679771896 0.60626840075575139 -0.48125553069377613 0.91713097875845928 0.37683311192737151 0.25098188446791408 -0.41450643955283245 0.04726718454194042 0.73155540575704003 -0.019218304596745027
decision_type=2 2 2 2 2 2 2 2 2 2 2
left_child=1 -1 3 -3 5 7 -6 -5 10 -10 -9
right_child=-2 2 -4 4 6 -7 -8 8 9 -11 -12
leaf_value=2.2351369747816027e-05 -1.8854120355626947e-05 1.4793851501386464e-05 -1.5646641339117195e-05 -1.3878204296945893e-05 2.3526712594992625e-05 -2.4261742219096049e-05 -1.1445096940922273e-06 3.4561598466517841e-06 1.8237130175293713e-05 -6.0898899722484534e-07 -1.1452720376837532e-05
leaf_weight=27 32 41 30 28 26 25 37 26 32 33 25
leaf_count=27 32 41 30 28 26 25 37 26 32 33 25
internal_value=2.16994e-07 2.06631e-06 2.58735e-07 2.00658e-06 -2.53241e-07 -3.71657e-06 9.03726e-06 -1.49695e-07 3.16408e-06 8.6691e-06 -3.85211e-06
internal_weight=362 330 303 273 232 169 63 144 116 65 51
internal_count=362 330 303 273 232 169 63 144 116 65 51
is_linear=0
shrinkage=0.03


Tree=36
num_leaves=11
num_cat=0
split_feature=22 8 8 8 18 9 6 8 4 4
split_gain=1.77875e-05 1.3872e-05 6.3913e-06 6.18397e-06 5.86523e-06 8.13333e-06 7.41969e-06 7.77188e-06 6.64587e-06 1.67835e-06
threshold=-1.3274391451776619 -0.30555533801824242 -0.12632643256381143 -0.49707382862599653 0.99191274441781985 -0.53297106452087573 0.36767048372087158 0.12249064300167879 -0.46783477752703123 -0.42819286053276245
decision_type=2 2 2 2 2 2 2 2 2 2
left_child=-1 3 -3 -2 5 -4 7 -7 -8 -6
right_child=1 2 4 -5 9 6 8 -9 -10 -11
leaf_value=-1.8664137075431524e-05 6.4225810913037446e-06 -1.47175649964573e-05 -1.1336328700508602e-05 2.2945762148083303e-05 -2.2076455468777566e-06 1.3764725531823037e-05 2.5567480177934545e-05 -6.7556278511050461e-06 5.0767901302606327e-06 -1.3094227092201786e-05
leaf_weight=38 47 26 26 36 25 26 28 46 29 26
leaf_count=38 47 26 26 36 25 26 28 46 29 26
internal_value=7.24843e-07 3.06383e-06 -7.01732e-07 1.35893e-05 1.06726e-06 3.97094e-06 7.05613e-06 6.545e-07 1.51424e-05 -7.75767e-06
internal_weight=353 315 232 83 206 155 129 72 57 51
internal_count=353 315 232 83 206 155 129 72 57 51
is_linear=0
shrinkage=0.03


Tree=37
num_leaves=11
num_cat=0
split_feature=10 3 25 20 0 0 11 7 21 10
split_gain=1.10439e-05 7.63789e-06 6.40471e-06 1.53846e-05 9.28122e-06 9.76646e-06 6.95028e-06 6.07046e-06 8.40402e-06 5.40324e-06
threshold=0.81269743482606172 1.0560855230627131 0.74563827438701902 -0.84595320257548956 -0.31538572630831402 0.36275453641990568 -0.019112533141733151 -0.5949428649186852 -0.16650269240565749 -0.05279528939787697
decision_type=2 2 2 2 2 2 2 2 2 2
left_child=2 -2 4 -4 -1 6 -6 -5 9 -9
right_child=1 -3 3 7 5 -7 -8 8 -10 -11
leaf_value=2.1888176052016204e-05 -2.3814084351114512e-05 -3.1634394416641948e-06 -2.3147190068602168e-05 1.5083132890280327e-05 7.5891042580713895e-06 1.4564116777014882e-05 -1.2435326159972576e-05 1.1436512244732251e-05 -1.4557605560185038e-05 -4.4021913921217983e-06
leaf_weight=29 27 40 26 26 26 39 39 42 30 36
leaf_count=29 27 40 26 26 26 39 39 42 30 36
internal_value=-4.97112e-07 -1.14853e-05 2.01556e-06 -2.02837e-06 6.88043e-06 2.69557e-06 -4.42555e-06 2.06931e-06 -1.06364e-06 4.12634e-06
internal_weight=360 67 293 160 133 104 65 134 108 78
internal_count=360 67 293 160 133 104 65 134 108 78
is_linear=0
shrinkage=0.03


Tree=38
num_leaves=10
num_cat=0
split_feature=22 3 8 24 20 7 9 7 8
split_gain=1.53039e-05 1.04983e-05 1.34047e-05 9.92005e-06 7.02559e-06 5.45196e-06 5.29258e-06 4.85228e-06 5.00787e-06
threshold=-1.2847116825313287 0.095731699776076831 -0.33225039006233043 0.91713097875845928 -0.50197287741561791 0.42479338768170538 0.61810633354705458 -0.20795939580248074 0.37128940097815838
decision_type=2 2 2 2 2 2 2 2 2
left_child=-1 2 -2 4 -3 -6 -5 -4 -9
right_child=1 3 7 6 5 -7 -8 8 -10
leaf_value=-1.869921961387215e-05 2.0811149039495238e-05 -2.2464382585055247e-05 -8.4232718677412767e-06 -4.2249472120602144e-06 2.8856629805252237e-06 -1.2221344598634289e-05 1.3847891756865594e-05 1.4017848583617623e-05 -2.7740554756864213e-06
leaf_weight=38 46 26 32 25 43 43 35 33 31
leaf_count=38 46 26 32 25 43 43 35 33 31
internal_value=-7.17797e-07 1.4583e-06 7.4955e-06 -3.52591e-06 -8.79918e-06 -4.66784e-06 6.31754e-06 1.11509e-06 5.88427e-06
internal_weight=352 314 142 172 112 86 60 96 64
internal_count=352 314 142 172 112 86 60 96 64
is_linear=0
shrinkage=0.03


Tree=39
num_leaves=11
num_cat=0
split_feature=22 8 7 6 5 22 22 6 6 18
split_gain=1.00268e-05 1.31675e-05 9.83445e-06 7.0555e-06 7.87807e-06 6.78439e-06 6.73293e-06 6.55475e-06 4.61398e-06 3.24639e-06
threshold=-1.2209165576929448 -0.30555533801824242 -0.37132751498079336 -0.15621149545392146 -0.41169088863689518 -0.44678083888173886 0.74090751427717272 0.45936127010819722 -0.45928010040388229 0.99191274441781985
decision_type=2 2 2 2 2 2 2 2 2 2
left_child=-1 2 -2 8 -5 -4 7 -6 -3 -8
right_child=1 3 5 4 6 -7 9 -9 -10 -11
leaf_value=-1.3772550970315932e-05 2.6685111523774037e-05 -3.4334856366816288e-06 1.5023335354971306e-05 1.6549032339893388e-05 -1.7264758017388105e-05 -6.8646120504126878e-06 1.2100120657123625e-05 2.621069764315437e-06 -1.8334753949318383e-05 -1.061038179810763e-06
leaf_weight=45 27 45 26 26 35 25 31 26 32 37
leaf_count=45 27 45 26 26 35 25 31 26 32 37
internal_value=-5.39417e-07 1.38152e-06 1.20447e-05 -2.20352e-06 1.48388e-06 4.29395e-06 -1.55251e-06 -8.78883e-06 -9.62622e-06 4.9389e-06
internal_weight=355 310 78 232 155 51 129 61 77 68
internal_count=355 310 78 232 155 51 129 61 77 68
is_linear=0
shrinkage=0.03


Tree=40
num_leaves=12
num_cat=0
split_feature=22 9 9 16 2 0 16 15 2 8 18
split_gain=7.67362e-06 1.29135e-05 5.37489e-06 8.907e-06 7.19337e-06 9.72259e-06 5.48812e-06 3.51712e-06 4.58092e-06 2.93437e-06 5.17998e-06
threshold=-1.2847116825313287 -0.99644854525252102 -0.55331773229881975 0.22284624168637737 -0.23271517890775079 0.36275453641990568 -0.0698566596676332 0.3829286328674763 -0.28142042566034592 0.48973115568917802 0.99191274441781985
decision_type=2 2 2 2 2 2 2 2 2 2 2
left_child=-1 -2 -3 4 -4 6 -6 8 -5 -10 -11
right_child=1 2 3 7 5 -7 -8 -9 9 10 -12
leaf_value=-1.2459259515020586e-05 2.1592590429953328e-05 -1.1497363989682137e-05 1.9745827542670489e-05 -1.2473168782889841e-05 4.427131413346311e-06 1.6975797726672682e-05 -1.5079532970412403e-05 -1.1746369890642125e-05 -4.9089286071916029e-06 1.5388107050447224e-05 -2.8601472305516446e-06
leaf_weight=41 26 35 31 25 27 28 25 37 34 28 28
leaf_count=41 26 35 31 25 27 28 25 37 34 28 28
internal_value=-2.31256e-07 1.31611e-06 -4.52974e-07 1.01681e-06 7.47736e-06 2.72333e-06 -4.95107e-06 -3.70109e-06 -1.11261e-06 2.0431e-06 6.26398e-06
internal_weight=365 324 298 263 111 80 52 152 115 90 56
internal_count=365 324 298 263 111 80 52 152 115 90 56
is_linear=0
shrinkage=0.03


Tree=41
num_leaves=12
num_cat=0
split_feature=3 18 23 17 19 16 19 25 20 21 6
split_gain=1.22153e-05 1.68974e-05 1.08697e-05 1.40348e-05 5.95454e-06 8.76347e-06 6.09897e-06 5.61328e-06 6.84004e-06 6.87479e-06 4.10903e-06
threshold=0.095731699776076831 -0.98849812418210792 -0.81182076150370563 -0.2769354732127613 -0.23619955291076933 -0.13202614394936005 -0.76322144065068132 -0.81763933693895607 -0.327495690701959 -0.85234974644504269 -0.094895339199502313
decision_type=2 2 2 2 2 2 2 2 2 2 2
left_child=1 -1 -2 -4 6 -6 -3 -5 9 -9 -7
right_child=2 4 3 7 5 10 -8 8 -10 -11 -12
leaf_value=2.8644422750221564e-05 -2.3622806600178591e-05 3.151231535265387e-06 1.104880810892294e-05 -1.9816385440338176e-05 2.1047409132329954e-05 -5.4920109631404137e-06 -1.6764334036270155e-05 -7.9672366700833658e-06 -1.7203825557841738e-05 1.2444859102187264e-05 9.5711804267141681e-06
leaf_weight=25 25 31 49 28 27 39 25 33 26 27 28
leaf_count=25 25 31 49 28 27 39 25 33 26 27 28
internal_value=1.06145e-07 5.81014e-06 -5.20343e-06 -2.37837e-06 2.00443e-06 6.61792e-06 -5.73965e-06 -8.1497e-06 -4.35125e-06 1.21821e-06 8.03054e-07
internal_weight=363 175 188 163 150 94 56 114 86 60 67
internal_count=363 175 188 163 150 94 56 114 86 60 67
is_linear=0
shrinkage=0.03


Tree=42
num_leaves=10
num_cat=0
split_feature=0 20 17 10 11 5 17 13 22
split_gain=1.27139e-05 1.36017e-05 8.39262e-06 8.34244e-06 8.02536e-06 7.38038e-06 6.97762e-06 6.74609e-06 7.36929e-06
threshold=0.96279666378588946 -0.50853898325894253 -0.17864481616887176 -0.31303990054523784 -0.13896209696741496 -0.11897289669706547 -0.59298316953469521 0.045303681250062934 -0.27425685942266137
decision_type=2 2 2 2 2 2 2 2 2
left_child=2 -2 5 -4 -5 -1 -7 -6 -9
right_child=1 -3 3 4 7 6 -8 8 -10
leaf_value=1.8873044705287612e-05 1.5695483365561813e-06 -2.9724537601941844e-05 1.0828717243528349e-05 -1.9393841242033108e-05 7.9994563401309875e-06 -5.8707568960016933e-06 1.1349831830254213e-05 -1.7357420007529607e-05 8.9753715883489347e-07
leaf_weight=40 25 25 38 28 43 40 45 34 48
leaf_count=40 25 25 38 28 43 40 45 34 48
internal_value=-2.09589e-08 -1.40775e-05 2.20318e-06 -1.75199e-06 -4.87661e-06 8.24667e-06 3.24603e-06 -1.62475e-06 -6.67159e-06
internal_weight=366 50 316 191 153 125 85 125 82
internal_count=366 50 316 191 153 125 85 125 82
is_linear=0
shrinkage=0.03


Tree=43
num_leaves=11
num_cat=0
split_feature=9 21 5 21 4 7 18 4 23 9
split_gain=1.04319e-05 4.67896e-06 1.28749e-05 9.34213e-06 5.92059e-06 6.04827e-06 6.78671e-06 7.15882e-06 3.83328e-06 1.65682e-06
threshold=-1.2506415446165784 -0.85234974644504269 -0.24376118442115352 -0.68022011366629342 0.76091040059104087 -0.60627652552823608 0.04726718454194042 -0.39487514041306587 0.7969258154867378 -0.37054275397892861
decision_type=2 2 2 2 2 2 2 2 2 2
left_child=-1 2 -2 -3 5 -5 7 9 -8 -7
right_child=1 3 -4 4 -6 6 8 -9 -10 -11
leaf_value=1.8992910112137906e-05 -2.5127656335826032e-05 1.8046453048009423e-05 3.0603664142420582e-06 1.4681549186934716e-05 -1.1763080265154712e-05 -4.1217058997762466e-06 1.0847809948671132e-05 -1.5236201927715835e-05 -2.061305936336253e-06 6.6948093111022905e-06
leaf_weight=25 25 25 35 25 40 26 47 45 37 25
leaf_count=25 25 25 35 25 40 26 47 45 37 25
internal_value=3.08666e-07 -1.10681e-06 -8.68464e-06 5.77157e-07 -1.20542e-06 8.54606e-07 -1.0658e-06 -6.51483e-06 5.16165e-06 1.18051e-06
internal_weight=355 330 60 270 245 205 180 96 84 51
internal_count=355 330 60 270 245 205 180 96 84 51
is_linear=0
shrinkage=0.03


Tree=44
num_leaves=11
num_cat=0
split_feature=0 8 8 10 0 22 3 22 7 6
split_gain=9.93792e-06 8.21234e-06 7.84222e-06 9.0223e-06 6.58317e-06 1.04241e-05 6.93351e-06 5.29067e-06 1.06634e-05 9.00967e-06
threshold=0.96279666378588946 -0.24688983954561103 -0.12632643256381143 0.45150595095550122 -0.72512092408884909 -1.2847116825313287 0.10404840239657777 0.95645678802896172 0.26551737384536622 -0.22465561913413351
decision_type=2 2 2 2 2 2 2 2 2 2
left_child=1 4 -3 7 -1 -6 -7 8 9 -4
right_child=-2 2 3 -5 5 6 -8 -9 -10 -11
leaf_value=2.1974822257107007e-05 -1.1784392859129745e-05 -1.6465610760496932e-05 -8.261282803232461e-06 1.5601910219464283e-05 -1.113098102796357e-05 2.0988530052230036e-05 1.2011726803393684e-06 8.3133333132804286e-06 -1.7383840451657304e-05 1.5040943921543916e-05
leaf_weight=28 47 25 32 33 25 34 30 34 40 28
leaf_count=28 47 25 32 33 25 34 30 34 40 28
internal_value=1.06772e-06 3.02257e-06 -7.95272e-07 1.55059e-06 9.28774e-06 5.2963e-06 1.17132e-05 -1.90981e-06 -5.38568e-06 2.61309e-06
internal_weight=356 309 192 167 117 89 64 134 100 60
internal_count=356 309 192 167 117 89 64 134 100 60
is_linear=0
shrinkage=0.03


Tree=45
num_leaves=12
num_cat=0
split_feature=22 22 6 22 18 22 7 22 0 23 19
split_gain=6.46916e-06 5.82756e-06 7.90165e-06 7.0998e-06 5.28238e-06 5.8212e-06 1.09672e-05 6.99246e-06 6.36621e-06 4.0845e-06 3.24169e-06
threshold=-1.2847116825313287 -0.45816729295393299 -0.40292418327866991 -0.25502936403157311 0.99191274441781985 0.92318541982879265 0.26551737384536622 0.18651512397967904 0.16436287157011018 -0.8081641826604421 0.75576606563694204
decision_type=2 2 2 2 2 2 2 2 2 2 2
left_child=-1 2 -2 -3 5 6 7 -5 -8 -4 -6
right_child=1 3 9 4 10 -7 8 -9 -10 -11 -12
leaf_value=-1.1313142251590481e-05 2.1111031024263174e-05 -1.3894194067916032e-05 -6.8655555504357416e-06 1.8809761253318614e-05 1.0820299299666658e-06 1.700890422748321e-05 -1.7302395161209461e-05 4.4849091113974279e-07 2.9023801500443368e-06 9.6472833570260255e-06 -1.3659236448865125e-05
leaf_weight=39 29 32 26 35 25 26 32 40 25 28 29
leaf_count=39 29 32 26 35 25 26 32 40 25 28 29
internal_value=2.35905e-07 1.61331e-06 8.47999e-06 -7.22482e-07 1.2657e-06 4.03415e-06 1.47852e-06 9.01708e-06 -8.44065e-06 1.69666e-06 -6.83458e-06
internal_weight=366 327 83 244 212 158 132 75 57 54 54
internal_count=366 327 83 244 212 158 132 75 57 54 54
is_linear=0
shrinkage=0.03


Tree=46
num_leaves=11
num_cat=0
split_feature=22 22 25 22 7 22 22 18 19 21
split_gain=1.28134e-05 1.00566e-05 7.13696e-06 6.91684e-06 8.63457e-06 8.10125e-06 7.58914e-06 5.89364e-06 4.22679e-06 2.70587e-06
threshold=-1.2847116825313287 -0.45816729295393299 -0.81763933693895607 -0.25502936403157311 0.22557719756540195 0.92318541982879265 0.15460606731123164 1.0367063275550521 -0.2070369188907375 -0.55906658448306501
decision_type=2 2 2 2 2 2 2 2 2 2
left_child=-1 2 -2 -3 6 9 -5 -7 -4 -6
right_child=1 3 8 4 5 7 -8 -9 -10 -11
leaf_value=-1.5978800958691863e-05 2.3093887781403188e-05 -1.3379325230614214e-05 -4.0338439850109767e-06 2.1112467080017486e-05 -3.1172641902230679e-06 1.5368186221166979e-05 1.6748400980759469e-06 -3.4873156216014428e-06 1.3072402056982704e-05 -1.5582996468635559e-05
leaf_weight=40 29 35 26 29 25 25 48 37 26 42
leaf_count=40 29 35 26 29 25 25 48 37 26 42
internal_value=3.51028e-08 2.02441e-06 1.11694e-05 -1.04924e-06 1.04568e-06 -3.69956e-06 8.9955e-06 4.11571e-06 4.51928e-06 -1.09316e-05
internal_weight=362 322 81 241 206 129 77 62 52 67
internal_count=362 322 81 241 206 129 77 62 52 67
is_linear=0
shrinkage=0.03


Tree=47
num_leaves=11
num_cat=0
split_feature=3 18 8 20 22 7 8 19 16 1
split_gain=8.27297e-06 1.24268e-05 9.59741e-06 1.52487e-05 1.33235e-05 7.12067e-06 5.3742e-06 6.91385e-06 8.71664e-06 2.88644e-06
threshold=0.095731699776076831 -0.98849812418210792 0.47222216234963493 0.25720281194663658 0.3198041762703579 1.0084057974465559 -0.46098870579498968 -0.23619955291076933 0.035068849636939695 -0.23131163420835851
decision_type=2 2 2 2 2 2 2 2 2 2
left_child=1 -1 3 4 -2 -4 -3 -8 -9 -10
right_child=2 6 5 -5 -6 -7 7 8 9 -11
leaf_value=2.2576096337919201e-05 5.9351247933165639e-06 -1.1941235058587223e-05 9.9025525321394513e-06 -2.8103816209543514e-05 -2.1171641367254778e-05 -8.2002877256441435e-06 -7.3061410064558275e-06 2.0915175005939088e-05 7.9537745827110481e-06 -6.1928298156191079e-06
leaf_weight=27 47 26 48 33 25 33 39 30 25 27
leaf_count=27 47 26 48 33 25 33 39 30 25 27
internal_value=-8.32825e-07 3.86917e-06 -5.23147e-06 -1.12168e-05 -3.47695e-06 2.52732e-06 4.33208e-07 3.09218e-06 8.03772e-06 6.08422e-07
internal_weight=360 174 186 105 72 81 147 121 82 52
internal_count=360 174 186 105 72 81 147 121 82 52
is_linear=0
shrinkage=0.03


Tree=48
num_leaves=12
num_cat=0
split_feature=22 8 3 12 8 15 6 9 21 4 22
split_gain=8.54092e-06 1.24964e-05 6.63887e-06 7.82579e-06 4.5903e-06 3.77853e-06 5.38488e-06 7.60664e-06 3.5037e-06 3.55394e-06 5.33506e-06
threshold=-1.2847116825313287 -0.30555533801824242 0.10404840239657777 -0.2419231649772012 -0.12632643256381143 0.49836345077335903 0.71227404127244853 0.75878160874150358 -0.22954035347537977 -0.64013058018305513 0.40204655842131504
decision_type=2 2 2 2 2 2 2 2 2 2 2
left_child=-1 2 3 -2 -3 6 8 -8 9 -6 -11
right_child=1 4 -4 -5 5 -7 7 -9 -10 10 -12
leaf_value=-1.2710555730696204e-05 6.779644695947914e-06 -1.3102912332748207e-05 5.1765516946034043e-07 3.0287540261815591e-05 -1.7509094691266043e-06 9.487446484854445e-06 -5.1074655283837967e-06 1.8068934264010749e-05 2.5592660136140151e-06 -4.3164361462307474e-06 -2.3549159313552081e-05
leaf_weight=43 26 29 30 25 41 30 26 25 37 27 25
leaf_count=43 26 29 30 25 41 30 26 25 37 27 25
internal_value=-1.54846e-07 1.52707e-06 1.17159e-05 1.83031e-05 -1.91166e-06 -3.73529e-07 -2.00794e-06 6.25351e-06 -5.24898e-06 -8.35548e-06 -1.35629e-05
internal_weight=364 321 81 51 240 211 181 51 130 93 52
internal_count=364 321 81 51 240 211 181 51 130 93 52
is_linear=0
shrinkage=0.03


Tree=49
num_leaves=11
num_cat=0
split_feature=1 20 18 4 4 17 20 1 20 4
split_gain=9.99443e-06 1.11064e-05 7.33643e-06 5.57505e-06 1.25054e-05 8.25141e-06 7.77792e-06 5.98207e-06 3.38272e-06 2.08517e-06
threshold=0.80525538933929497 0.25720281194663658 -1.0685276461901887 -0.39919410413228579 -0.19697405285023803 -0.20881403335993634 -0.327495690701959 -0.15573182591218729 -0.64251907897958838 -0.79545902537071489
decision_type=2 2 2 2 2 2 2 2 2 2
left_child=2 -2 -1 5 -5 6 -4 -6 9 -7
right_child=1 -3 3 4 7 8 -8 -9 -10 -11
leaf_value=1.7987838846938057e-05 -9.3682459070502472e-07 -2.5875955820811211e-05 2.6943792571546509e-05 -1.8526342760846349e-05 1.0882582729599172e-05 8.116499288007617e-07 3.72162405660169e-06 -4.5466693128608833e-06 6.5598304483596864e-06 -1.1441183254646603e-05
leaf_weight=26 45 25 25 35 42 25 27 49 38 25
leaf_count=26 45 25 25 35 42 25 27 49 38 25
internal_value=3.37297e-07 -9.84366e-06 2.77794e-06 1.29125e-06 -3.28683e-06 5.41153e-06 1.48861e-05 2.57452e-06 -1.871e-07 -5.31477e-06
internal_weight=362 70 292 266 126 140 52 91 88 50
internal_count=362 70 292 266 126 140 52 91 88 50
is_linear=0
shrinkage=0.03


Tree=50
num_leaves=12
num_cat=0
split_feature=4 19 3 25 4 2 18 8 11 8 19
split_gain=1.01998e-05 1.1004e-05 9.52558e-06 1.00925e-05 6.30483e-06 7.93349e-06 5.56441e-06 4.4962e-06 6.18774e-06 5.75786e-06 3.17857e-06
threshold=1.6587921080760142 -1.0679530679771896 0.089340539141604489 -0.81763933693895607 -0.1329608405832283 -0.43859533799181344 -0.016546503261217534 0.16221562650417284 0.46966806196982802 0.6822195946955899 -0.098470630543786922
decision_type=2 2 2 2 2 2 2 2 2 2 2
left_child=1 -1 4 -4 5 -3 -7 8 -5 -9 -6
right_child=-2 2 3 7 10 6 -8 9 -10 -11 -12
leaf_value=1.8542193225584922e-05 -1.6274645541588223e-05 -8.4057135723014653e-06 -2.1140232589283598e-05 -5.3158596503115923e-06 5.9264339055516753e-06 1.8737793827312997e-05 -4.260064106347272e-07 -1.6005742244570602e-05 1.5008582038437731e-05 1.9997012725892292e-06 2.1054458907747173e-05
leaf_weight=30 33 48 31 28 25 25 30 33 26 31 25
leaf_count=30 33 48 31 28 25 25 30 33 26 31 25
internal_value=-3.67813e-07 1.21329e-06 -5.08126e-07 -5.90716e-06 4.74976e-06 5.06703e-07 8.28481e-06 -1.90525e-06 4.46998e-06 -7.28436e-06 1.34904e-05
internal_weight=365 332 302 149 153 103 55 118 54 64 50
internal_count=365 332 302 149 153 103 55 118 54 64 50
is_linear=0
shrinkage=0.03


Tree=51
num_leaves=11
num_cat=0
split_feature=7 19 5 18 22 17 8 6 22 9
split_gain=9.87867e-06 4.73401e-06 7.40442e-06 6.92218e-06 7.28208e-06 1.09401e-05 1.00192e-05 4.24972e-06 4.05125e-06 2.72099e-06
threshold=-1.3443406732882355 -0.79927894288450474 -0.19706867326548261 -0.38985289339758789 0.30703306919656065 0.39924513926923494 0.23958649210134494 1.0775344521272212 -0.44678083888173886 1.0510387241847197
decision_type=2 2 2 2 2 2 2 2 2 2
left_child=-1 2 -2 -3 5 8 -6 9 -5 -8
right_child=1 3 -4 4 6 -7 7 -9 -10 -11
leaf_value=-1.8270035518351226e-05 1.9476295303069617e-05 -1.3318017595988099e-05 -4.3329231675670596e-07 8.5131669063763368e-06 -1.8742571228358429e-05 1.9656997964806289e-05 1.5487385242019452e-06 1.1495073882542783e-05 -5.9296400964244225e-06 -1.0401318092287208e-05
leaf_weight=26 29 35 40 29 31 38 47 25 44 27
leaf_count=26 29 35 40 29 31 38 47 25 44 27
internal_value=-4.37776e-07 9.06105e-07 7.93451e-06 -8.50995e-07 9.59568e-07 6.6031e-06 -3.85914e-06 8.01333e-07 -1.92087e-07 -2.81142e-06
internal_weight=371 345 69 276 241 111 130 99 73 74
internal_count=371 345 69 276 241 111 130 99 73 74
is_linear=0
shrinkage=0.03


Tree=52
num_leaves=11
num_cat=0
split_feature=1 9 18 18 18 22 22 7 6 9
split_gain=8.61315e-06 1.37802e-05 1.19887e-05 5.15809e-06 1.22024e-05 5.92925e-06 4.3e-06 5.16282e-06 7.08621e-06 3.89538e-06
threshold=0.80525538933929497 0.61810633354705458 -1.0486766659192714 -0.38985289339758789 -0.55758494209385734 -0.46449291289120298 0.95645678802896172 0.26551737384536622 -0.094895339199502313 0.15314760612586714
decision_type=2 2 2 2 2 2 2 2 2 2
left_child=2 -2 -1 4 -4 -5 7 8 -7 -9
right_child=1 -3 3 5 -6 6 -8 9 -10 -11
leaf_value=2.0677650153889512e-05 -2.6433559596625852e-05 1.7539229844948527e-06 4.5303909777771879e-06 1.2169687689429549e-05 -2.3138736209008267e-05 -5.3454423618859434e-06 8.4294338641764329e-06 -1.8499287412291429e-05 1.3055513933185495e-05 -1.9139442010782656e-06
leaf_weight=28 27 37 32 43 26 48 39 26 31 25
leaf_count=28 27 37 32 43 26 48 39 26 31 25
internal_value=-1.52258e-07 -1.01377e-05 1.99226e-06 5.45166e-08 -7.87301e-06 2.22337e-06 -3.07352e-07 -2.92839e-06 1.87519e-06 -1.03692e-05
internal_weight=362 64 298 270 58 212 169 130 79 51
internal_count=362 64 298 270 58 212 169 130 79 51
is_linear=0
shrinkage=0.03


Tree=53
num_leaves=10
num_cat=0
split_feature=22 9 4 4 1 4 3 6 7
split_gain=1.18144e-05 7.28215e-06 6.37353e-06 8.35797e-06 1.0978e-05 9.12777e-06 8.16671e-06 5.7752e-06 1.00113e-05
threshold=-1.3274391451776619 -1.0782518466375504 -0.5013067463509856 -0.19697405285023803 -0.15573182591218729 -0.39919410413228579 0.70403909144707699 0.40481978701180948 0.063552704952380537
decision_type=2 2 2 2 2 2 2 2 2
left_child=-1 -2 7 5 -5 -4 -6 8 -3
right_child=1 2 3 4 6 -7 -8 -9 -10
leaf_value=-1.7040769616869511e-05 1.569496674887562e-05 1.0954396576770315e-05 -6.7816362877024137e-07 1.6774604551756054e-05 -1.3112964718040778e-05 -2.2210565559048889e-05 6.4631410511056478e-06 1.4692161365880899e-05 -9.7593122336547816e-06
leaf_weight=36 28 42 34 30 44 37 34 38 42
leaf_count=36 28 42 34 30 44 37 34 38 42
internal_value=-7.24238e-07 1.06116e-06 -3.00127e-07 -3.9041e-06 1.35199e-06 -1.18993e-05 -4.57979e-06 4.98767e-06 5.97542e-07
internal_weight=365 329 301 179 108 71 78 122 84
internal_count=365 329 301 179 108 71 78 122 84
is_linear=0
shrinkage=0.03


Tree=54
num_leaves=11
num_cat=0
split_feature=3 23 23 23 23 13 8 3 11 7
split_gain=5.60115e-06 1.04987e-05 1.00483e-05 9.56208e-06 8.76664e-06 1.30617e-05 8.42092e-06 4.8113e-06 6.7802e-06 2.75239e-06
threshold=0.095731699776076831 -1.0307547420163492 -0.81182076150370563 0.1646550043070589 -0.38688220656438499 -0.34136490182490487 0.47222216234963493 -0.23523619243931218 -1.4649080405017414 1.0084057974465559
decision_type=2 2 2 2 2 2 2 2 2 2
left_child=1 -1 -2 -4 5 -3 -5 8 -6 -8
right_child=2 4 3 6 7 -7 9 -9 -10 -11
leaf_value=1.9266610695922283e-05 -2.0598990076541668e-05 -2.394197332670536e-05 1.1061545101256342e-05 -1.6202115113558719e-05 1.1659779920591974e-06 6.4283858228009194e-06 5.538182116572937e-06 -1.8458257512209362e-06 2.2056800549950726e-05 -6.3916495157302831e-06
leaf_weight=35 25 26 48 39 27 25 46 38 29 28
leaf_count=35 25 26 48 39 27 25 46 38 29 28
internal_value=7.4706e-07 4.51965e-06 -2.90383e-06 -1.56137e-07 9.60038e-07 -9.05454e-06 -4.92117e-06 6.39348e-06 1.19844e-05 1.02419e-06
internal_weight=366 180 186 161 145 51 113 94 56 74
internal_count=366 180 186 161 145 51 113 94 56 74
is_linear=0
shrinkage=0.03


Tree=55
num_leaves=11
num_cat=0
split_feature=17 17 20 3 5 4 6 22 9 8
split_gain=7.18684e-06 6.82468e-06 1.53655e-05 6.30482e-06 8.66233e-06 5.73145e-06 5.14511e-06 6.38793e-06 1.17883e-05 4.14259e-06
threshold=-0.2769354732127613 0.10339970662786858 -0.070033805280169309 0.61972493384612615 -0.11897289669706547 -0.47986617645914392 0.71227404127244853 0.3198041762703579 0.15314760612586714 0.6164912768376748
decision_type=2 2 2 2 2 2 2 2 2 2
left_child=3 2 -2 4 -1 -6 7 8 -3 -9
right_child=1 6 -4 -5 5 -7 -8 9 -10 -11
leaf_value=2.2532714057758442e-05 -2.5227109213119547e-05 -5.2127481600963418e-06 4.4082140630052892e-06 -4.6193937464522607e-06 1.3898933376185596e-05 -5.7022060593289066e-06 1.219585655053379e-05 -1.660223941378776e-05 1.8425352008630249e-05 -3.6443706938790944e-07
leaf_weight=35 32 49 31 32 25 29 30 31 31 26
leaf_count=35 32 49 31 32 25 29 30 31 31 26
internal_value=8.82658e-07 -2.23096e-06 -1.06446e-05 6.80111e-06 1.09074e-05 3.3724e-06 9.43067e-07 -1.52105e-06 3.94702e-06 -9.19552e-06
internal_weight=351 230 63 121 89 54 167 137 80 57
internal_count=351 230 63 121 89 54 167 137 80 57
is_linear=0
shrinkage=0.03


Tree=56
num_leaves=11
num_cat=0
split_feature=4 18 22 22 5 26 0 18 20 22
split_gain=9.20111e-06 8.6646e-06 4.55806e-06 6.95737e-06 5.45224e-06 4.80227e-06 4.29615e-06 3.61423e-06 5.07537e-06 5.08264e-06
threshold=1.6587921080760142 -0.48125553069377613 -0.79217552462147467 -0.46449291289120298 -0.71515791506799464 -0.84346524761809027 -0.52011077319140941 0.7594833477084596 -0.327495690701959 0.3198041762703579
decision_type=2 2 2 2 2 2 2 2 2 2
left_child=1 6 -3 -4 -5 -6 -1 8 9 -7
right_child=-2 2 3 4 5 7 -8 -9 -10 -11
leaf_value=2.1761351201712386e-05 -1.4613336183434251e-05 -1.1592473143537062e-05 1.4592566078825821e-05 -1.4231588058464694e-05 -9.1928620656744903e-06 2.1333008027997697e-05 4.5025414530957478e-06 -3.8520188513757595e-06 -1.8754559768726615e-06 4.1142022564599754e-06
leaf_weight=25 35 30 29 25 36 27 27 48 43 36
leaf_count=25 35 30 29 25 36 27 27 48 43 36
internal_value=3.80639e-09 1.57313e-06 -5.57524e-07 7.99232e-07 -1.06126e-06 6.71673e-07 1.28e-05 2.97767e-06 6.07036e-06 1.14937e-05
internal_weight=361 326 274 244 215 190 52 154 106 63
internal_count=361 326 274 244 215 190 52 154 106 63
is_linear=0
shrinkage=0.03


Tree=57
num_leaves=10
num_cat=0
split_feature=10 18 9 7 1 17 17 13 12
split_gain=7.89876e-06 8.52265e-06 7.14788e-06 5.90425e-06 4.11006e-06 6.13162e-06 6.11517e-06 4.9977e-06 4.04394e-06
threshold=0.81269743482606172 -1.0486766659192714 0.4632141525299131 -0.7156478388383064 -0.15573182591218729 -0.2769354732127613 -0.32400746147307041 0.082274236950956439 0.089911517650082901
decision_type=2 2 2 2 2 2 2 2 2
left_child=1 -1 -2 -3 6 -6 -5 -7 -9
right_child=2 3 -4 4 5 7 -8 8 -10
leaf_value=1.8210426238027821e-05 -2.0653734603771365e-05 -1.2240259160395138e-05 -6.3885700780831808e-07 -5.8671336338865441e-08 1.1091236026459227e-05 -1.1786152994276097e-05 1.5327800730177687e-05 7.6759466422740127e-06 -7.6785407264441553e-06
leaf_weight=30 26 26 42 46 32 43 47 38 26
leaf_count=30 26 26 42 46 32 43 47 38 26
internal_value=9.04785e-07 3.07616e-06 -8.2916e-06 1.31636e-06 2.83563e-06 -4.30512e-07 7.71729e-06 -3.87627e-06 1.43819e-06
internal_weight=356 288 68 258 232 139 93 107 64
internal_count=356 288 68 258 232 139 93 107 64
is_linear=0
shrinkage=0.03


Tree=58
num_leaves=11
num_cat=0
split_feature=4 17 15 23 6 21 15 8 21 7
split_gain=7.89089e-06 9.20512e-06 7.4136e-06 6.66757e-06 6.92861e-06 1.12186e-05 5.62382e-06 5.53174e-06 7.90981e-06 4.72303e-06
threshold=1.6587921080760142 -0.96328545244203001 0.60626840075575139 -1.040388471855705 -0.055867531634867969 -0.85234974644504269 1.0000000180025095e-35 0.2630477080640613 -0.15963924279793215 0.69646705185626256
decision_type=2 2 2 2 2 2 2 2 2 2
left_child=1 -1 3 -3 5 -5 -7 8 -6 -9
right_child=-2 2 -4 4 7 6 -8 9 -10 -11
leaf_value=1.7032219592692854e-05 -1.3990369046522947e-05 1.5344590521837945e-05 -1.4288850375563807e-05 -2.2558998082656348e-05 1.857408185605891e-05 -7.4544992548908334e-06 9.7283531504217534e-06 -8.7148877046274706e-06 -2.9369409632636232e-06 6.2632295612274898e-06
leaf_weight=30 34 27 31 28 40 40 30 40 25 36
leaf_count=30 34 27 31 28 40 40 30 40 25 36
internal_value=-2.35228e-07 1.19497e-06 -4.04752e-07 1.21332e-06 -3.831e-07 -6.51001e-06 -9.04197e-08 3.87532e-06 1.03006e-05 -1.61999e-06
internal_weight=361 327 297 266 239 98 70 141 65 76
internal_count=361 327 297 266 239 98 70 141 65 76
is_linear=0
shrinkage=0.03


Tree=59
num_leaves=11
num_cat=0
split_feature=7 19 18 22 8 8 2 18 20 21
split_gain=8.5633e-06 5.36196e-06 6.56755e-06 9.50704e-06 1.18634e-05 9.66167e-06 3.72007e-06 4.69606e-06 3.49598e-06 2.95563e-06
threshold=-1.3443406732882355 -1.0679530679771896 -0.42338088025766657 0.30703306919656065 0.21018925247561854 0.23958649210134494 0.83445411745056353 0.99191274441781985 -0.080814838411140899 -0.61023173313212198
decision_type=2 2 2 2 2 2 2 2 2 2
left_child=-1 -2 -3 4 8 -5 7 -7 9 -4
right_child=1 2 3 5 -6 6 -8 -9 -10 -11
leaf_value=-1.6406878759361073e-05 1.2345604610676344e-05 -1.154782096441855e-05 1.5123499384760085e-05 -1.9033467906410804e-05 -8.3054772579588077e-06 1.0065672831084763e-05 -7.7920903734463661e-06 -5.7601455005674829e-06 2.1000907978635619e-05 1.0476567142177373e-06
leaf_weight=28 33 41 29 30 31 45 35 27 33 25
leaf_count=28 33 41 29 30 31 45 35 27 33 25
internal_value=-4.80143e-07 8.75324e-07 -4.03458e-07 1.38838e-06 7.62994e-06 -3.98756e-06 2.30918e-07 4.13099e-06 1.33081e-05 8.60691e-06
internal_weight=357 329 296 255 118 137 107 72 87 54
internal_count=357 329 296 255 118 137 107 72 87 54
is_linear=0
shrinkage=0.03


Tree=60
num_leaves=10
num_cat=0
split_feature=22 8 22 23 17 5 20 9 20
split_gain=8.89714e-06 9.65014e-06 7.22228e-06 5.88668e-06 6.85503e-06 3.89974e-06 3.33577e-06 4.55613e-06 4.19137e-06
threshold=-1.2209165576929448 -0.30555533801824242 -0.67676751620622555 -0.36610184999665601 -0.38171903694157688 -0.35087213865680356 -0.12270299407847261 0.3765000121383838 -0.84595320257548956
decision_type=2 2 2 2 2 2 2 2 2
left_child=-1 2 -2 -3 -5 -6 7 -7 -9
right_child=1 3 -4 4 5 6 -8 8 -10
leaf_value=-1.3191518093143322e-05 2.1534541091341452e-05 -1.3086381516533199e-05 3.2102168451998221e-06 1.0743502147306572e-05 -9.9975361614876112e-06 -6.4591965999100539e-06 -6.9364836037110709e-06 7.7237488377639755e-07 1.7499857574596086e-05
leaf_weight=42 32 34 49 45 45 26 38 28 26
leaf_count=42 32 34 49 45 45 26 38 28 26
internal_value=-2.0249e-07 1.48649e-06 1.04495e-05 -1.51352e-06 3.78201e-07 -2.48339e-06 3.82181e-07 3.85855e-06 8.82635e-06
internal_weight=365 323 81 242 208 163 118 80 54
internal_count=365 323 81 242 208 163 118 80 54
is_linear=0
shrinkage=0.03


Tree=61
num_leaves=11
num_cat=0
split_feature=22 8 8 22 17 5 7 15 0 18
split_gain=9.22199e-06 6.34773e-06 5.38432e-06 4.54868e-06 4.06886e-06 4.79983e-06 5.65624e-06 4.72409e-06 3.43637e-06 2.23186e-06
threshold=-1.2847116825313287 -0.30555533801824242 -0.12632643256381143 -0.44678083888173886 -0.38171903694157688 -0.35087213865680356 0.30253507836810073 -0.2460847237483087 0.36275453641990568 -0.46131078697350558
decision_type=2 2 2 2 2 2 2 2 2 2
left_child=-1 3 -3 9 8 -6 -7 -8 -4 -2
right_child=1 2 4 -5 5 6 7 -9 -10 -11
leaf_value=-1.4190559591657507e-05 1.9793472288581272e-05 -1.3185839348547493e-05 5.6153196265558312e-07 -1.1645833243771146e-06 -1.0109243462360357e-05 9.8246866724841065e-06 3.5190632689381555e-06 -1.1780187977659379e-05 1.6139098192797971e-05 7.5871194516926503e-06
leaf_weight=37 28 28 26 27 43 46 39 34 25 26
leaf_count=37 28 28 26 27 43 46 39 34 25 26
internal_value=-6.08119e-09 1.62381e-06 -8.18137e-07 8.88937e-06 8.07664e-07 -1.5188e-06 1.58532e-06 -3.60662e-06 8.19759e-06 1.39163e-05
internal_weight=359 322 241 81 213 162 119 73 51 54
internal_count=359 322 241 81 213 162 119 73 51 54
is_linear=0
shrinkage=0.03


Tree=62
num_leaves=10
num_cat=0
split_feature=10 22 25 12 18 9 8 4 26
split_gain=7.97254e-06 2.0781e-05 5.81195e-06 6.42156e-06 5.31585e-06 4.94226e-06 7.27251e-06 4.97549e-06 4.93876e-06
threshold=-0.31303990054523784 -1.2847116825313287 0.74563827438701902 -1.3537600203311682 0.99191274441781985 0.61810633354705458 -0.218690905287489 -0.62701944032113743 -0.34573139277805692
decision_type=2 2 2 2 2 2 2 2 2
left_child=2 -2 -1 -4 5 6 -3 -8 -9
right_child=1 4 3 -5 -6 -7 7 8 -10
leaf_value=1.8468226369025484e-05 -2.749611050083851e-05 9.08777858967369e-06 1.3351238313620782e-05 -4.8322663550689785e-06 -9.904311894099852e-06 1.1374174429874983e-05 6.1710521143910368e-06 -1.9310234522183438e-05 -3.2106198825126643e-06
leaf_weight=28 28 48 29 44 41 40 26 27 47
leaf_count=28 28 48 29 44 41 40 26 27 47
internal_value=-2.93126e-07 -3.09967e-06 6.84828e-06 2.39132e-06 -1.16701e-07 2.01783e-06 -5.1091e-07 -5.11828e-06 -9.0848e-06
internal_weight=358 257 101 73 229 188 148 100 74
internal_count=358 257 101 73 229 188 148 100 74
is_linear=0
shrinkage=0.03


Tree=63
num_leaves=11
num_cat=0
split_feature=10 22 13 18 0 22 23 0 7 17
split_gain=7.11347e-06 1.38508e-05 7.49968e-06 7.30238e-06 6.64377e-06 4.14366e-06 4.41855e-06 7.49318e-06 3.68633e-06 2.53481e-06
threshold=-0.31303990054523784 -1.2847116825313287 -0.95947779209840689 -0.33992320663976555 -1.4098389437198147 -0.3010653614958172 0.40735330172582745 0.29233384487293096 0.063552704952380537 0.43120194736093936
decision_type=2 2 2 2 2 2 2 2 2 2
left_child=2 -2 4 -3 -1 -5 7 -7 -8 -10
right_child=1 3 -4 5 -6 6 8 -9 9 -11
leaf_value=9.7806970036283414e-06 -2.1709953107347245e-05 1.4711288756094792e-05 1.909716183908639e-05 -1.003360661525221e-05 -1.0007730989645307e-05 -2.5258167561332809e-06 5.6539038296950121e-06 1.6786251203897834e-05 -2.5656765236427806e-06 -1.4931939297709433e-05
leaf_weight=37 28 29 34 40 26 40 26 33 35 26
leaf_count=37 28 29 34 40 26 40 26 33 35 26
internal_value=8.19996e-07 -1.79264e-06 7.74215e-06 6.4266e-07 1.61404e-06 -1.39729e-06 7.61788e-07 6.2043e-06 -3.80491e-06 -7.83654e-06
internal_weight=354 257 97 229 63 200 160 73 87 61
internal_count=354 257 97 229 63 200 160 73 87 61
is_linear=0
shrinkage=0.03


Tree=64
num_leaves=12
num_cat=0
split_feature=9 18 18 25 20 4 20 5 20 21 8
split_gain=6.304e-06 3.91285e-06 1.08897e-05 9.58565e-06 4.2906e-06 6.29002e-06 9.16691e-06 8.75875e-06 6.36252e-06 3.93604e-06 1.89478e-06
threshold=-1.2105082265907656 0.99191274441781985 0.46685188541032213 1.0000000180025095e-35 -0.84595320257548956 -0.39919410413228579 -0.11494906702129794 -0.079487412291252155 -0.4995270580573351 -0.013180129980055608 1.123106564182021
decision_type=2 2 2 2 2 2 2 2 2 2 2
left_child=-1 2 4 -4 -2 8 -7 -8 -6 -10 -3
right_child=1 10 3 -5 5 6 7 -9 9 -11 -12
leaf_value=1.4566614776413188e-05 -1.0617470826745327e-05 -1.3335795875173062e-05 2.621954772621393e-05 1.9477874673157203e-06 1.8680839218884812e-05 -1.7161845950313899e-05 1.2232279717257673e-05 -8.5527935688505016e-06 8.9844874547942219e-06 -7.5229347773459332e-06 -1.7685609922269716e-06
leaf_weight=30 38 25 27 32 27 34 36 37 26 26 26
leaf_count=30 38 25 27 32 27 34 36 37 26 26 26
internal_value=1.39341e-06 2.10193e-07 1.58863e-06 1.30552e-05 -1.43158e-06 4.45102e-07 -4.29527e-06 1.69738e-06 6.86561e-06 7.30776e-07 -7.43877e-06
internal_weight=364 334 283 59 224 186 107 73 79 52 51
internal_count=364 334 283 59 224 186 107 73 79 52 51
is_linear=0
shrinkage=0.03


Tree=65
num_leaves=11
num_cat=0
split_feature=10 22 4 20 4 4 0 14 10 6
split_gain=6.28482e-06 1.2521e-05 7.36772e-06 4.41583e-06 4.08609e-06 1.07543e-05 1.01489e-05 7.51594e-06 7.12932e-06 4.19827e-06
threshold=-0.31303990054523784 -1.2847116825313287 0.0035492626849732748 -0.053825912851372323 -0.39919410413228579 -0.19697405285023803 0.36275453641990568 0.77247285527374454 0.10849315017571538 0.1601580065313877
decision_type=2 2 2 2 2 2 2 2 2 2
left_child=2 -2 3 -1 8 -6 -7 -8 -3 -10
right_child=1 4 -4 -5 5 6 7 -9 9 -11
leaf_value=6.1379084357982857e-06 -2.2213208236886809e-05 1.4290150810100729e-05 1.6382122979561437e-05 -9.8232851650419221e-06 -2.1909142806543968e-05 -1.252492669985205e-05 -3.38734602407315e-06 1.8825716754941698e-05 -8.9295523689911912e-06 5.7884007136718452e-06
leaf_weight=39 27 37 38 26 25 34 26 29 37 33
leaf_count=39 27 37 38 26 25 34 26 29 37 33
internal_value=-3.40755e-07 -2.92782e-06 5.88829e-06 -2.46569e-07 -5.71683e-07 -4.5237e-06 3.59857e-07 8.325e-06 3.63887e-06 -1.99109e-06
internal_weight=351 248 103 65 221 114 89 55 107 70
internal_count=351 248 103 65 221 114 89 55 107 70
is_linear=0
shrinkage=0.03


Tree=66
num_leaves=12
num_cat=0
split_feature=10 9 7 25 8 0 2 16 18 16 5
split_gain=1.04454e-05 8.35498e-06 6.51941e-06 6.36685e-06 7.78056e-06 6.08035e-06 1.02885e-05 3.77244e-06 3.22147e-06 5.26152e-06 2.06092e-06
threshold=0.81269743482606172 0.89631477920245395 -1.1023877833857918 0.74563827438701902 -0.3937906980184937 0.36275453641990568 -0.23271517890775079 -0.014083899062273404 0.12775354523543678 0.79261188684576578 0.13719310783201108
decision_type=2 2 2 2 2 2 2 2 2 2 2
left_child=2 -2 -1 5 -5 6 -4 -8 10 -10 -6
right_child=1 -3 3 4 8 -7 7 -9 9 -11 -12
leaf_value=1.7252671887735441e-05 -2.0005748329670798e-05 2.07079707454088e-06 1.7184843242527372e-05 -1.7511596436966451e-05 -1.1425620230147614e-05 1.6407477635836512e-05 -1.2599574536579893e-05 3.1795635848538952e-06 1.0237868201719331e-05 -6.6752903985616281e-06 6.3807883494658967e-07
leaf_weight=26 36 27 27 26 25 39 30 25 49 25 26
leaf_count=26 36 27 27 26 25 39 30 25 49 25 26
internal_value=5.54237e-07 -1.05444e-05 2.90059e-06 1.5287e-06 -2.57999e-06 6.65607e-06 2.0182e-06 -5.42724e-06 5.25783e-07 4.52396e-06 -5.2755e-06
internal_weight=361 63 298 272 151 121 82 55 125 74 51
internal_count=361 63 298 272 151 121 82 55 125 74 51
is_linear=0
shrinkage=0.03


Tree=67
num_leaves=11
num_cat=0
split_feature=1 9 18 4 23 14 7 17 9 21
split_gain=7.39117e-06 1.63835e-05 1.43992e-05 6.55014e-06 4.96559e-06 6.3028e-06 4.53385e-06 3.695e-06 2.41015e-06 8.89076e-07
threshold=0.80525538933929497 0.61810633354705458 -1.0486766659192714 -0.64013058018305513 -0.31549729475842264 -0.11831275719026248 -0.22208307447615336 -0.11781429763726435 1.0000000180025095e-35 -0.29884047228259519
decision_type=2 2 2 2 2 2 2 2 2 2
left_child=2 -2 -1 7 5 -5 -6 -4 -8 -10
right_child=1 -3 3 4 6 -7 8 -9 9 -11
leaf_value=2.3089227268226548e-05 -2.7435406382909814e-05 3.1546183299724359e-06 1.5794286129111525e-05 -2.0874596391675164e-05 9.9380960124438962e-06 -1.583014117516411e-06 -1.0998876174562609e-05 2.2313290310194132e-06 -3.1907698276852661e-06 4.4130848415079518e-06
leaf_weight=27 26 40 29 27 33 35 25 48 31 25
leaf_count=27 26 40 29 27 33 35 25 48 31 25
internal_value=1.35232e-07 -8.896e-06 2.26402e-06 4.15692e-08 -3.15126e-06 -9.98419e-06 5.64899e-07 7.33946e-06 -3.25381e-06 2.03808e-07
internal_weight=346 66 280 253 176 62 114 77 81 56
internal_count=346 66 280 253 176 62 114 77 81 56
is_linear=0
shrinkage=0.03


Tree=68
num_leaves=12
num_cat=0
split_feature=1 12 9 15 8 4 3 7 20 21 4
split_gain=5.5963e-06 6.31469e-06 4.52909e-06 4.21179e-06 5.39661e-06 7.1454e-06 5.71457e-06 4.63946e-06 3.10344e-06 2.53264e-06 5.4255e-06
threshold=0.80525538933929497 0.57187674566277591 0.89631477920245395 -1.4880696062932905 -0.88079650695556821 -0.52166757531302255 -0.43045337463976913 0.30253507836810073 -0.10301428799847219 -0.88680751546134673 -0.68717643498170078
decision_type=2 2 2 2 2 2 2 2 2 2 2
left_child=1 3 -2 -1 -5 9 -7 8 -8 -6 -11
right_child=2 -3 -4 4 5 6 7 -9 -10 10 -12
leaf_value=1.1484750761155738e-05 -1.4531102481972387e-05 1.5859320706762703e-05 1.2518032526713795e-06 1.0628707220201462e-05 1.1676506053065947e-05 -1.9819098722655323e-05 -4.8407691817907292e-06 -1.1724034023389227e-05 9.4329949710159918e-06 -8.5326417759241509e-06 9.664685280768025e-06
leaf_weight=30 36 28 30 34 28 25 29 38 26 29 30
leaf_count=30 36 28 30 34 28 25 29 38 26 29 30
internal_value=5.44724e-07 2.30067e-06 -7.35705e-06 8.89366e-07 -4.40598e-07 -2.27648e-06 -7.08572e-06 -3.66277e-06 1.90683e-06 4.24639e-06 7.20236e-07
internal_weight=363 297 66 269 239 205 118 93 55 87 59
internal_count=363 297 66 269 239 205 118 93 55 87 59
is_linear=0
shrinkage=0.03


Tree=69
num_leaves=10
num_cat=0
split_feature=10 20 12 11 20 4 4 1 20
split_gain=6.01781e-06 6.01843e-06 5.87938e-06 6.37495e-06 3.09121e-06 4.12622e-06 7.26505e-06 7.29538e-06 4.33516e-06
threshold=0.81269743482606172 -0.19229013798424158 0.44118763699140801 0.74604739479333826 -0.84595320257548956 -0.39919410413228579 -0.19697405285023803 -0.15573182591218729 -0.327495690701959
decision_type=2 2 2 2 2 2 2 2 2
left_child=2 -2 4 -4 -1 8 -7 -8 -6
right_child=1 -3 3 -5 5 6 7 -9 -10
leaf_value=-8.0148192728302087e-06 -2.1478600088316438e-07 -1.8333236799993424e-05 2.0826786034740508e-05 -3.9042080551063496e-07 1.3442471639564246e-05 -1.6124805722562274e-05 9.3572061160043441e-06 -8.280557047748095e-06 -6.6834284404839576e-07
leaf_weight=48 33 33 25 26 36 29 46 39 43
leaf_count=48 33 33 25 26 36 29 46 39 43
internal_value=-1.09278e-06 -9.27401e-06 7.56397e-07 1.00102e-05 -1.20187e-06 4.92542e-07 -3.15903e-06 1.26459e-06 5.7619e-06
internal_weight=358 66 292 51 241 193 114 85 79
internal_count=358 66 292 51 241 193 114 85 79
is_linear=0
shrinkage=0.03


Tree=70
num_leaves=10
num_cat=0
split_feature=2 22 11 19 18 18 22 4 21
split_gain=5.88227e-06 1.37562e-05 8.97735e-06 5.62444e-06 3.00919e-06 5.57572e-06 5.09567e-06 6.58523e-06 5.0651e-06
threshold=-0.51207149783934847 -1.0058476618971524 -1.4649080405017414 -0.59720016436222922 0.40588684528858615 0.99191274441781985 -0.45816729295393299 -0.41245949269846133 -0.43444374500388161
decision_type=2 2 2 2 2 2 2 2 2
left_child=2 -2 -1 -3 6 8 -5 -8 -6
right_child=1 3 -4 4 5 -7 7 -9 -10
leaf_value=-2.122252193569183e-06 -1.8172767052640888e-05 1.1304152305963853e-05 1.7498192638561516e-05 6.0015773960913059e-06 6.9552160681496383e-07 -5.4028465360391105e-06 -1.9179327343105492e-06 -2.1121396109811028e-05 1.8167293765145585e-05
leaf_weight=41 37 43 43 30 32 42 45 25 28
leaf_count=41 37 43 43 30 32 42 45 25 28
internal_value=9.53068e-07 -1.12265e-06 7.92155e-06 1.45227e-06 -6.44917e-07 2.9806e-06 -4.34295e-06 -8.77631e-06 8.84902e-06
internal_weight=366 282 84 245 202 102 100 70 60
internal_count=366 282 84 245 202 102 100 70 60
is_linear=0
shrinkage=0.03


Tree=71
num_leaves=11
num_cat=0
split_feature=4 18 18 1 26 16 5 7 1 1
split_gain=1.12254e-05 7.8516e-06 5.65331e-06 4.55162e-06 6.55233e-06 5.61689e-06 3.25171e-06 2.75748e-06 3.02515e-06 3.39658e-06
threshold=1.6587921080760142 -0.48125553069377613 -0.35582839359098911 -0.15573182591218729 -0.84346524761809027 0.25195754549564298 0.1233136581551678 -0.28105896451791984 0.8386573176394756 0.30795829476327652
decision_type=2 2 2 2 2 2 2 2 2 2
left_child=1 6 -3 5 -5 -4 -1 -6 9 -9
right_child=-2 2 3 4 7 -7 -8 8 -10 -11
leaf_value=1.8937999207992106e-05 -1.8825683193426813e-05 -1.4950907668837595e-05 1.3345896020659782e-05 -1.5279132744434454e-05 7.8444053642376666e-06 -4.4790404353989289e-06 3.6369230787386186e-06 -6.4015625777914385e-07 4.3489865324440096e-06 -1.3615223439956025e-05
leaf_weight=25 30 26 41 31 31 26 25 46 41 30
leaf_count=25 30 26 41 31 31 26 25 46 41 30
internal_value=-1.27405e-06 3.61193e-07 -1.64731e-06 -2.41241e-07 -2.73783e-06 6.42876e-06 1.12875e-05 -1.10938e-07 -2.21876e-06 -5.76189e-06
internal_weight=352 322 272 246 179 67 50 148 117 76
internal_count=352 322 272 246 179 67 50 148 117 76
is_linear=0
shrinkage=0.03


Tree=72
num_leaves=11
num_cat=0
split_feature=22 4 4 2 0 14 20 21 21 21
split_gain=5.74474e-06 7.29381e-06 1.06273e-05 8.81135e-06 1.42512e-05 8.60456e-06 4.97127e-06 4.93411e-06 4.54755e-06 6.30542e-06
threshold=-1.2847116825313287 -0.19697405285023803 -0.39919410413228579 -0.13122381009862769 0.34450787950085743 0.77247285527374454 -0.98288043700456218 -0.69025239904900704 -0.34137984572933427 0.054594688950408359
decision_type=2 2 2 2 2 2 2 2 2 2
left_child=-1 2 6 -3 -5 -6 -2 -8 -9 -10
right_child=1 3 -4 4 5 -7 7 8 9 -11
leaf_value=-1.1625686309248283e-05 -1.1594919036724604e-05 1.7547469610040673e-05 -1.6941260205035527e-05 -1.5838377625186691e-05 -2.2809983087986784e-06 2.1898934707375396e-05 1.3016128168601426e-05 -1.0593868100841064e-05 1.3356339684378326e-05 -5.3333917755728839e-06
leaf_weight=38 25 42 39 30 26 27 33 28 32 33
leaf_count=38 25 42 39 30 26 27 33 28 32 33
internal_value=-6.06928e-07 7.22319e-07 -2.98041e-06 6.35046e-06 6.84505e-07 1.00371e-05 6.25377e-07 3.05004e-06 -4.86316e-07 3.86771e-06
internal_weight=353 315 190 125 83 53 151 126 93 65
internal_count=353 315 190 125 83 53 151 126 93 65
is_linear=0
shrinkage=0.03


Tree=73
num_leaves=12
num_cat=0
split_feature=7 10 18 22 16 4 18 18 7 16 7
split_gain=5.67465e-06 6.55132e-06 1.18799e-05 7.80087e-06 5.10383e-06 4.57615e-06 8.35094e-06 6.87775e-06 7.50698e-06 4.11438e-06 3.04844e-06
threshold=1.3104642839338825 0.81269743482606172 -1.0486766659192714 1.0958664892754373 0.98439758600192551 -0.52166757531302255 -0.23336360879787615 -0.38985289339758789 -0.28105896451791984 0.059597780609637947 0.095989394315591683
decision_type=2 2 2 2 2 2 2 2 2 2 2
left_child=1 2 -1 5 -3 6 -4 -7 -9 -10 -8
right_child=-2 4 3 -5 -6 7 10 8 9 -11 -12
leaf_value=2.25446822529193e-05 -1.3439487212154847e-05 -1.5043787059619569e-05 1.8252019322567828e-05 1.6432030063767269e-05 2.5028746997122654e-06 -1.4883646476391731e-05 5.9579846759204097e-06 1.1495478426116856e-05 2.19167385954019e-06 -1.3443487748438861e-05 -7.0875210449709183e-06
leaf_weight=25 27 37 27 26 25 40 28 33 28 33 38
leaf_count=25 27 37 27 26 25 40 28 33 28 33 38
internal_value=-2.01705e-07 8.49531e-07 2.81615e-06 8.66687e-07 -7.96852e-06 -9.16128e-07 4.1968e-06 -4.46465e-06 -3.10366e-08 -6.26669e-06 -1.55306e-06
internal_weight=367 340 278 253 62 227 93 134 94 61 66
internal_count=367 340 278 253 62 227 93 134 94 61 66
is_linear=0
shrinkage=0.03


Tree=74
num_leaves=12
num_cat=0
split_feature=7 19 15 6 7 25 20 6 6 4 7
split_gain=7.53566e-06 5.55508e-06 5.36745e-06 6.69354e-06 5.20104e-06 6.68151e-06 4.25798e-06 3.00961e-06 2.7803e-06 3.58443e-06 2.27643e-06
threshold=-0.79123000513632447 -0.12274998371884721 -1.4880696062932905 -0.40292418327866991 0.22557719756540195 0.74563827438701902 0.029830242485294537 0.10197910273574871 1.3064568428947452 -0.42819286053276245 0.58237331166760109
decision_type=2 2 2 2 2 2 2 2 2 2 2
left_child=1 -1 -2 6 5 7 -4 -5 9 10 -6
right_child=2 -3 3 4 8 -7 -8 -9 -10 -11 -12
leaf_value=-2.2548598141069167e-06 1.3805229321587829e-05 -2.2060778786544688e-05 4.396657118377334e-07 2.6609274209477004e-06 -1.0654566487776011e-05 -6.8233380677286606e-06 1.6171634477359477e-05 1.6754704367849626e-05 1.9984453450888396e-06 -1.5411033658418329e-05 1.1736042678478497e-06
leaf_weight=26 25 25 32 30 27 42 30 25 25 46 32
leaf_count=26 25 25 32 30 27 42 30 25 25 46 32
internal_value=-1.2678e-06 -1.19636e-05 4.69427e-07 -6.8419e-07 -3.07026e-06 2.18675e-06 8.05191e-06 9.06719e-06 -6.9928e-06 -9.13358e-06 -4.23929e-06
internal_weight=365 51 314 289 227 97 62 55 130 105 59
internal_count=365 51 314 289 227 97 62 55 130 105 59
is_linear=0
shrinkage=0.03


Tree=75
num_leaves=12
num_cat=0
split_feature=18 5 18 9 16 17 5 23 9 8 8
split_gain=3.34578e-06 9.74679e-06 8.26398e-06 6.13563e-06 7.64745e-06 7.08472e-06 6.71442e-06 5.52001e-06 8.96429e-06 4.54949e-06 3.67892e-06
threshold=-0.48125553069377613 -0.30410862860071536 -0.37172873719084015 -0.37054275397892861 0.14644250303518699 0.362152251784086 0.28551764750646308 0.36424130897868329 0.67484571554912542 0.16221562650417284 0.82734944677861078
decision_type=2 2 2 2 2 2 2 2 2 2 2
left_child=1 -1 -2 -4 5 6 -5 9 -9 -6 -10
right_child=2 -3 3 4 7 -7 -8 8 10 -11 -12
leaf_value=2.156084495604423e-05 -1.6834333946462719e-05 -1.4192954226334972e-06 -1.0894396671739576e-05 1.5285130549455059e-05 1.9412602123338727e-07 2.3851047534844837e-05 -6.7020924136159006e-06 1.604384458253414e-05 -1.1852460478481728e-05 -1.7729707873636121e-05 2.211495267785838e-06
leaf_weight=26 25 46 33 25 25 25 25 33 26 26 47
leaf_count=26 25 46 33 25 25 25 25 33 26 26 47
internal_value=1.09082e-06 6.87909e-06 -3.46267e-07 1.20921e-06 2.93085e-06 1.08114e-05 4.29152e-06 -8.33733e-07 3.06814e-06 -8.94351e-06 -2.79758e-06
internal_weight=362 72 290 265 232 75 50 157 106 51 73
internal_count=362 72 290 265 232 75 50 157 106 51 73
is_linear=0
shrinkage=0.03


Tree=76
num_leaves=10
num_cat=0
split_feature=8 2 16 26 7 6 13 7 5
split_gain=5.07716e-06 1.31529e-05 7.18235e-06 4.18225e-06 7.5385e-06 4.75528e-06 3.09431e-06 4.99999e-06 3.35956e-06
threshold=-0.49707382862599653 -0.68244804177908802 -0.27359523758956533 -0.84346524761809027 -0.60627652552823608 0.76705002660774235 0.082274236950956439 0.095989394315591683 0.23862073661790584
decision_type=2 2 2 2 2 2 2 2 2
left_child=1 -1 -2 -4 -5 6 8 -8 -6
right_child=2 -3 3 4 5 -7 7 -9 -10
leaf_value=9.6863816699104592e-06 1.4107920401636121e-05 -1.6088749269663226e-05 -8.062168089766244e-06 1.7379951148177496e-05 -1.4131905053920277e-05 9.1585739942514157e-06 1.0750343935796991e-05 -5.0610282317696454e-06 -9.9259164666623944e-08
leaf_weight=28 38 49 46 25 34 38 30 45 28
leaf_count=28 38 49 46 25 34 38 30 45 28
internal_value=1.1672e-07 -6.71597e-06 1.96925e-06 9.41662e-08 1.97012e-06 -2.31281e-07 -2.83577e-06 1.26352e-06 -7.79458e-06
internal_weight=361 77 284 246 200 175 137 75 62
internal_count=361 77 284 246 200 175 137 75 62
is_linear=0
shrinkage=0.03


Tree=77
num_leaves=11
num_cat=0
split_feature=11 19 5 5 6 23 19 5 8 22
split_gain=6.69811e-06 4.36439e-06 7.00167e-06 4.66612e-06 8.56748e-06 7.62515e-06 6.04293e-06 3.89078e-06 5.29204e-06 2.79097e-06
threshold=1.1724243078834158 -0.76322144065068132 -0.19706867326548261 -0.3956186659842868 -0.39045554952762845 -0.40800106222092553 1.0000000180025095e-35 0.18568673562053056 0.6164912768376748 -0.011101186380459543
decision_type=2 2 2 2 2 2 2 2 2 2
left_child=1 2 -1 5 -5 -3 9 -8 -9 -6
right_child=-2 3 -4 4 6 -7 7 8 -10 -11
leaf_value=2.0159050093045354e-05 -1.3031479588056344e-05 -1.9754979621211533e-05 7.5273437852791338e-07 1.749396499284168e-05 1.2551113322842864e-07 8.2519196862555208e-07 -4.2042565455631117e-06 1.948518720564607e-05 1.0636815750331152e-06 -1.2780947279823426e-05
leaf_weight=27 31 26 44 28 25 43 30 25 32 38
leaf_count=27 31 26 44 28 25 43 30 25 32 38
internal_value=2.79728e-07 1.57736e-06 8.1326e-06 -3.06938e-07 2.2603e-06 -6.92966e-06 -5.83323e-07 4.54069e-06 9.14329e-06 -7.65934e-06
internal_weight=349 318 71 247 178 69 150 87 57 63
internal_count=349 318 71 247 178 69 150 87 57 63
is_linear=0
shrinkage=0.03


Tree=78
num_leaves=12
num_cat=0
split_feature=22 8 8 6 18 9 22 8 8 19 2
split_gain=6.32118e-06 8.10432e-06 6.9513e-06 4.57063e-06 5.85516e-06 3.25181e-06 7.28194e-06 9.24904e-06 8.08193e-06 4.53881e-06 3.97584e-06
threshold=-1.3274391451776619 -0.30555533801824242 -0.12632643256381143 0.3335514569037063 -0.25987102334103518 -0.55331773229881975 0.30703306919656065 0.12249064300167879 0.23958649210134494 1.0830159663830141 0.53695830779291553
decision_type=2 2 2 2 2 2 2 2 2 2 2
left_child=-1 3 -3 4 -2 -4 7 -7 -8 10 -10
right_child=1 2 5 -5 -6 6 8 -9 9 -11 -12
leaf_value=-1.3646745310325059e-05 2.0351913305300208e-05 -1.6892664538722279e-05 -1.0845687043183715e-05 -2.6780094543937596e-06 1.6688369046628044e-06 2.2797476247852988e-05 -1.7827428414926138e-05 -1.8439183121041298e-06 1.1750152017968403e-05 -8.3949519996002145e-06 -3.085538516235578e-06
leaf_weight=32 36 27 25 25 26 26 27 29 37 33 29
leaf_count=32 36 27 25 25 26 26 27 29 37 33 29
internal_value=-9.33721e-07 3.37581e-07 -2.57975e-06 8.15067e-06 1.25171e-05 -7.03788e-07 6.97026e-07 9.80474e-06 -3.27856e-06 6.89309e-07 5.23144e-06
internal_weight=352 320 233 87 62 206 181 55 126 99 66
internal_count=352 320 233 87 62 206 181 55 126 99 66
is_linear=0
shrinkage=0.03


Tree=79
num_leaves=12
num_cat=0
split_feature=22 12 8 9 16 15 17 8 9 7 4
